{"learner":{"attributes":{"best_iteration":"399","best_score":"0.33333306341146424"},"feature_names":[],"feature_types":[],"gradient_booster":{"model":{"gbtree_model_param":{"num_parallel_tree":"1","num_trees":"400"},"iteration_indptr":[0,1,2,3,4,5,6,7,8,9,10,11,12,13,14,15,16,17,18,19,20,21,22,23,24,25,26,27,28,29,30,31,32,33,34,35,36,37,38,39,40,41,42,43,44,45,46,47,48,49,50,51,52,53,54,55,56,57,58,59,60,61,62,63,64,65,66,67,68,69,70,71,72,73,74,75,76,77,78,79,80,81,82,83,84,85,86,87,88,89,90,91,92,93,94,95,96,97,98,99,100,101,102,103,104,105,106,107,108,109,110,111,112,113,114,115,116,117,118,119,120,121,122,123,124,125,126,127,128,129,130,131,132,133,134,135,136,137,138,139,140,141,142,143,144,145,146,147,148,149,150,151,152,153,154,155,156,157,158,159,160,161,162,163,164,165,166,167,168,169,170,171,172,173,174,175,176,177,178,179,180,181,182,183,184,185,186,187,188,189,190,191,192,193,194,195,196,197,198,199,200,201,202,203,204,205,206,207,208,209,210,211,212,213,214,215,216,217,218,219,220,221,222,223,224,225,226,227,228,229,230,231,232,233,234,235,236,237,238,239,240,241,242,243,244,245,246,247,248,249,250,251,252,253,254,255,256,257,258,259,260,261,262,263,264,265,266,267,268,269,270,271,272,273,274,275,276,277,278,279,280,281,282,283,284,285,286,287,288,289,290,291,292,293,294,295,296,297,298,299,300,301,302,303,304,305,306,307,308,309,310,311,312,313,314,315,316,317,318,319,320,321,322,323,324,325,326,327,328,329,330,331,332,333,334,335,336,337,338,339,340,341,342,343,344,345,346,347,348,349,350,351,352,353,354,355,356,357,358,359,360,361,362,363,364,365,366,367,368,369,370,371,372,373,374,375,376,377,378,379,380,381,382,383,384,385,386,387,388,389,390,391,392,393,394,395,396,397,398,399,400],"tree_info":[0,0,0,0,0,0,0,0,0,0,0,0,0,0,0,0,0,0,0,0,0,0,0,0,0,0,0,0,0,0,0,0,0,0,0,0,0,0,0,0,0,0,0,0,0,0,0,0,0,0,0,0,0,0,0,0,0,0,0,0,0,0,0,0,0,0,0,0,0,0,0,0,0,0,0,0,0,0,0,0,0,0,0,0,0,0,0,0,0,0,0,0,0,0,0,0,0,0,0,0,0,0,0,0,0,0,0,0,0,0,0,0,0,0,0,0,0,0,0,0,0,0,0,0,0,0,0,0,0,0,0,0,0,0,0,0,0,0,0,0,0,0,0,0,0,0,0,0,0,0,0,0,0,0,0,0,0,0,0,0,0,0,0,0,0,0,0,0,0,0,0,0,0,0,0,0,0,0,0,0,0,0,0,0,0,0,0,0,0,0,0,0,0,0,0,0,0,0,0,0,0,0,0,0,0,0,0,0,0,0,0,0,0,0,0,0,0,0,0,0,0,0,0,0,0,0,0,0,0,0,0,0,0,0,0,0,0,0,0,0,0,0,0,0,0,0,0,0,0,0,0,0,0,0,0,0,0,0,0,0,0,0,0,0,0,0,0,0,0,0,0,0,0,0,0,0,0,0,0,0,0,0,0,0,0,0,0,0,0,0,0,0,0,0,0,0,0,0,0,0,0,0,0,0,0,0,0,0,0,0,0,0,0,0,0,0,0,0,0,0,0,0,0,0,0,0,0,0,0,0,0,0,0,0,0,0,0,0,0,0,0,0,0,0,0,0,0,0,0,0,0,0,0,0,0,0,0,0,0,0,0,0,0,0,0,0,0,0,0,0,0,0,0,0,0,0,0,0,0,0,0,0,0,0,0,0,0,0,0,0,0,0,0,0,0,0,0,0,0,0],"trees":[{"base_weights":[-4.6316794E-7,-2.6552933E-1,4.869192E-1,-4.70571E-1,-8.0923E-2,3.0501214E-1,8.86625E-1,-6.460065E-3,-3.9230497E-3,-1.0911279E-3,5.019178E-3,4.3137423E-3,1.1008604E-3,7.508872E-3,1.0257265E-2],"categories":[],"categories_nodes":[],"categories_segments":[],"categories_sizes":[],"default_left":[1,0,0,0,1,1,0,0,0,0,0,0,0,0,0],"id":0,"left_children":[1,3,5,7,9,11,13,-1,-1,-1,-1,-1,-1,-1,-1],"loss_changes":[8.474781E3,1.6055298E3,1.6815693E3,2.7567773E2,3.6680872E2,3.9154065E2,1.358169E2,0E0,0E0,0E0,0E0,0E0,0E0,0E0,0E0],"parents":[2147483647,0,0,1,1,2,2,3,3,4,4,5,5,6,6],"right_children":[2,4,6,8,10,12,14,-1,-1,-1,-1,-1,-1,-1,-1],"split_conditions":[-1.2135321E-2,-5.511875E-1,1.0959165E0,-8.806083E-1,1.3661952E0,-3.042068E-1,1.8446001E0,-6.460065E-3,-3.9230497E-3,-1.0911279E-3,5.019178E-3,4.3137423E-3,1.1008604E-3,7.508872E-3,1.0257265E-2],"split_indices":[0,0,0,0,2,1,0,0,0,0,0,0,0,0,0],"split_type":[0,0,0,0,0,0,0,0,0,0,0,0,0,0,0],"sum_hessian":[6.5546E4,4.2416E4,2.313E4,2.0095E4,2.2321E4,1.5897E4,7.233E3,6.197E3,1.3898E4,2.1292E4,1.029E3,9.644E3,6.253E3,3.664E3,3.569E3],"tree_param":{"num_deleted":"0","num_feature":"61","num_nodes":"15","size_leaf_vector":"1"}},{"base_weights":[-1.2855915E-7,-2.6287413E-1,4.8205107E-1,-4.6586552E-1,-8.011372E-2,3.0196264E-1,8.7776077E-1,-6.395474E-3,-3.883818E-3,-1.0802184E-3,4.969035E-3,4.2706123E-3,1.0898567E-3,7.606157E-3,1.035865E-2],"categories":[],"categories_nodes":[],"categories_segments":[],"categories_sizes":[],"default_left":[1,0,0,0,1,1,0,0,0,0,0,0,0,0,0],"id":1,"left_children":[1,3,5,7,9,11,13,-1,-1,-1,-1,-1,-1,-1,-1],"loss_changes":[8.30616E3,1.573582E3,1.6481133E3,2.7019385E2,3.5951526E2,3.8374963E2,1.3319385E2,0E0,0E0,0E0,0E0,0E0,0E0,0E0,0E0],"parents":[2147483647,0,0,1,1,2,2,3,3,4,4,5,5,6,6],"right_children":[2,4,6,8,10,12,14,-1,-1,-1,-1,-1,-1,-1,-1],"split_conditions":[-1.2135321E-2,-5.511875E-1,1.0959165E0,-8.806083E-1,1.3661952E0,-3.042068E-1,2.0242841E0,-6.395474E-3,-3.883818E-3,-1.0802184E-3,4.969035E-3,4.2706123E-3,1.0898567E-3,7.606157E-3,1.035865E-2],"split_indices":[0,0,0,0,2,1,0,0,0,0,0,0,0,0,0],"split_type":[0,0,0,0,0,0,0,0,0,0,0,0,0,0,0],"sum_hessian":[6.5546E4,4.2416E4,2.313E4,2.0095E4,2.2321E4,1.5897E4,7.233E3,6.197E3,1.3898E4,2.1292E4,1.029E3,9.644E3,6.253E3,4.158E3,3.075E3],"tree_param":{"num_deleted":"0","num_feature":"61","num_nodes":"15","size_leaf_vector":"1"}},{"base_weights":[8.408141E-8,-2.4514838E-1,5.06934E-1,-4.6120775E-1,-6.487794E-2,3.2158148E-1,8.689854E-1,-6.331531E-3,-3.8449874E-3,4.6918143E-5,-2.4966935E-3,4.501246E-3,1.2980907E-3,7.3577557E-3,1.0054966E-2],"categories":[],"categories_nodes":[],"categories_segments":[],"categories_sizes":[],"default_left":[1,0,0,0,1,1,0,0,0,0,0,0,0,0,0],"id":2,"left_children":[1,3,5,7,9,11,13,-1,-1,-1,-1,-1,-1,-1,-1],"loss_changes":[8.1459165E3,1.7208198E3,1.4335317E3,2.6481836E2,3.0966107E2,3.4833435E2,1.3080762E2,0E0,0E0,0E0,0E0,0E0,0E0,0E0,0E0],"parents":[2147483647,0,0,1,1,2,2,3,3,4,4,5,5,6,6],"right_children":[2,4,6,8,10,12,14,-1,-1,-1,-1,-1,-1,-1,-1],"split_conditions":[7.770672E-2,-5.511875E-1,1.0959165E0,-8.806083E-1,-2.1366943E-1,-2.589381E-1,1.8446001E0,-6.331531E-3,-3.8449874E-3,4.6918143E-5,-2.4966935E-3,4.501246E-3,1.2980907E-3,7.3577557E-3,1.0054966E-2],"split_indices":[0,0,0,0,1,1,0,0,0,0,0,0,0,0,0],"split_type":[0,0,0,0,0,0,0,0,0,0,0,0,0,0,0],"sum_hessian":[6.5546E4,4.4181E4,2.1365E4,2.0095E4,2.4086E4,1.4132E4,7.233E3,6.197E3,1.3898E4,1.7499E4,6.587E3,8.46E3,5.672E3,3.664E3,3.569E3],"tree_param":{"num_deleted":"0","num_feature":"61","num_nodes":"15","size_leaf_vector":"1"}},{"base_weights":[3.6654487E-7,-2.2991633E-1,5.299193E-1,-4.5659605E-1,-5.2095763E-2,3.4021285E-1,8.602982E-1,-6.2682265E-3,-3.806538E-3,1.8004564E-4,-2.3419573E-3,4.7149896E-3,1.494893E-3,7.453348E-3,1.01545835E-2],"categories":[],"categories_nodes":[],"categories_segments":[],"categories_sizes":[],"default_left":[1,0,0,0,1,1,0,0,0,0,0,0,0,0,0],"id":3,"left_children":[1,3,5,7,9,11,13,-1,-1,-1,-1,-1,-1,-1,-1],"loss_changes":[7.986186E3,1.8426309E3,1.2428037E3,2.595498E2,3.270376E2,3.154502E2,1.2828076E2,0E0,0E0,0E0,0E0,0E0,0E0,0E0,0E0],"parents":[2147483647,0,0,1,1,2,2,3,3,4,4,5,5,6,6],"right_children":[2,4,6,8,10,12,14,-1,-1,-1,-1,-1,-1,-1,-1],"split_conditions":[1.376014E-1,-5.511875E-1,1.0959165E0,-8.806083E-1,-2.1366943E-1,-2.589381E-1,2.0242841E0,-6.2682265E-3,-3.806538E-3,1.8004564E-4,-2.3419573E-3,4.7149896E-3,1.494893E-3,7.453348E-3,1.01545835E-2],"split_indices":[0,0,0,0,1,1,0,0,0,0,0,0,0,0,0],"split_type":[0,0,0,0,0,0,0,0,0,0,0,0,0,0,0],"sum_hessian":[6.5546E4,4.5713E4,1.9833E4,2.0095E4,2.5618E4,1.26E4,7.233E3,6.197E3,1.3898E4,1.8498E4,7.12E3,7.462E3,5.138E3,4.158E3,3.075E3],"tree_param":{"num_deleted":"0","num_feature":"61","num_nodes":"15","size_leaf_vector":"1"}},{"base_weights":[4.322503E-7,-2.5529715E-1,4.6815822E-1,-4.5203078E-1,-7.8170806E-2,2.9360837E-1,8.5169786E-1,-6.2055513E-3,-3.7684795E-3,-1.0585338E-3,4.9418192E-3,4.1515874E-3,1.061048E-3,7.2096908E-3,9.856667E-3],"categories":[],"categories_nodes":[],"categories_segments":[],"categories_sizes":[],"default_left":[1,0,0,0,1,1,0,0,0,0,0,0,0,0,0],"id":4,"left_children":[1,3,5,7,9,11,13,-1,-1,-1,-1,-1,-1,-1,-1],"loss_changes":[7.8342676E3,1.4780579E3,1.5482959E3,2.5438525E2,3.5372656E2,3.6228918E2,1.2598242E2,0E0,0E0,0E0,0E0,0E0,0E0,0E0,0E0],"parents":[2147483647,0,0,1,1,2,2,3,3,4,4,5,5,6,6],"right_children":[2,4,6,8,10,12,14,-1,-1,-1,-1,-1,-1,-1,-1],"split_conditions":[-1.2135321E-2,-5.511875E-1,1.0959165E0,-8.806083E-1,1.3661952E0,-3.042068E-1,1.8446001E0,-6.2055513E-3,-3.7684795E-3,-1.0585338E-3,4.9418192E-3,4.1515874E-3,1.061048E-3,7.2096908E-3,9.856667E-3],"split_indices":[0,0,0,0,2,1,0,0,0,0,0,0,0,0,0],"split_type":[0,0,0,0,0,0,0,0,0,0,0,0,0,0,0],"sum_hessian":[6.5546E4,4.2416E4,2.313E4,2.0095E4,2.2321E4,1.5897E4,7.233E3,6.197E3,1.3898E4,2.1292E4,1.029E3,9.644E3,6.253E3,3.664E3,3.569E3],"tree_param":{"num_deleted":"0","num_feature":"61","num_nodes":"15","size_leaf_vector":"1"}},{"base_weights":[7.9949353E-7,-2.254735E-1,5.1968074E-1,-4.4751066E-1,-5.1294766E-2,3.3392262E-1,8.431834E-1,-6.143506E-3,-3.730793E-3,1.8092798E-4,-2.3154323E-3,4.6263835E-3,1.4693298E-3,7.303613E-3,9.954539E-3],"categories":[],"categories_nodes":[],"categories_segments":[],"categories_sizes":[],"default_left":[1,0,0,0,1,1,0,0,0,0,0,0,0,0,0],"id":5,"left_children":[1,3,5,7,9,11,13,-1,-1,-1,-1,-1,-1,-1,-1],"loss_changes":[7.680552E3,1.767927E3,1.1916079E3,2.4932568E2,3.2042108E2,3.0321924E2,1.2354932E2,0E0,0E0,0E0,0E0,0E0,0E0,0E0,0E0],"parents":[2147483647,0,0,1,1,2,2,3,3,4,4,5,5,6,6],"right_children":[2,4,6,8,10,12,14,-1,-1,-1,-1,-1,-1,-1,-1],"split_conditions":[1.376014E-1,-5.511875E-1,1.0959165E0,-8.806083E-1,-2.1366943E-1,-2.589381E-1,2.0242841E0,-6.143506E-3,-3.730793E-3,1.8092798E-4,-2.3154323E-3,4.6263835E-3,1.4693298E-3,7.303613E-3,9.954539E-3],"split_indices":[0,0,0,0,1,1,0,0,0,0,0,0,0,0,0],"split_type":[0,0,0,0,0,0,0,0,0,0,0,0,0,0,0],"sum_hessian":[6.5546E4,4.5713E4,1.9833E4,2.0095E4,2.5618E4,1.26E4,7.233E3,6.197E3,1.3898E4,1.8498E4,7.12E3,7.462E3,5.138E3,4.158E3,3.075E3],"tree_param":{"num_deleted":"0","num_feature":"61","num_nodes":"15","size_leaf_vector":"1"}},{"base_weights":[9.1815906E-7,-2.503647E-1,4.5911458E-1,-4.6640116E-1,-9.52954E-2,2.8815997E-1,8.3475417E-1,-6.282597E-3,-3.9865184E-3,-1.207112E-3,4.8697377E-3,4.073927E-3,1.042316E-3,7.0646005E-3,9.6622845E-3],"categories":[],"categories_nodes":[],"categories_segments":[],"categories_sizes":[],"default_left":[1,0,0,0,1,1,0,0,0,0,0,0,0,0,0],"id":6,"left_children":[1,3,5,7,9,11,13,-1,-1,-1,-1,-1,-1,-1,-1],"loss_changes":[7.534498E3,1.4209514E3,1.4851699E3,1.9410742E2,3.6550134E2,3.486051E2,1.21336426E2,0E0,0E0,0E0,0E0,0E0,0E0,0E0,0E0],"parents":[2147483647,0,0,1,1,2,2,3,3,4,4,5,5,6,6],"right_children":[2,4,6,8,10,12,14,-1,-1,-1,-1,-1,-1,-1,-1],"split_conditions":[-1.2135321E-2,-6.1108226E-1,1.0959165E0,-9.1055566E-1,1.3661952E0,-3.042068E-1,1.8446001E0,-6.282597E-3,-3.9865184E-3,-1.207112E-3,4.8697377E-3,4.073927E-3,1.042316E-3,7.0646005E-3,9.6622845E-3],"split_indices":[0,0,0,0,2,1,0,0,0,0,0,0,0,0,0],"split_type":[0,0,0,0,0,0,0,0,0,0,0,0,0,0,0],"sum_hessian":[6.5546E4,4.2416E4,2.313E4,1.7723E4,2.4693E4,1.5897E4,7.233E3,5.227E3,1.2496E4,2.3661E4,1.032E3,9.644E3,6.253E3,3.664E3,3.569E3],"tree_param":{"num_deleted":"0","num_feature":"61","num_nodes":"15","size_leaf_vector":"1"}},{"base_weights":[1.1578326E-6,-2.2111668E-1,5.096402E-1,-4.387815E-1,-5.0367888E-2,3.2774886E-1,8.264087E-1,-6.022856E-3,-3.6583832E-3,1.83181E-4,-2.2879392E-3,4.539436E-3,1.444215E-3,7.156881E-3,9.758431E-3],"categories":[],"categories_nodes":[],"categories_segments":[],"categories_sizes":[],"default_left":[1,0,0,0,1,1,0,0,0,0,0,0,0,0,0],"id":7,"left_children":[1,3,5,7,9,11,13,-1,-1,-1,-1,-1,-1,-1,-1],"loss_changes":[7.386623E3,1.6989844E3,1.1425142E3,2.3945508E2,3.1397446E2,2.91458E2,1.1899072E2,0E0,0E0,0E0,0E0,0E0,0E0,0E0,0E0],"parents":[2147483647,0,0,1,1,2,2,3,3,4,4,5,5,6,6],"right_children":[2,4,6,8,10,12,14,-1,-1,-1,-1,-1,-1,-1,-1],"split_conditions":[1.376014E-1,-5.511875E-1,1.0959165E0,-8.806083E-1,-2.1366943E-1,-2.589381E-1,2.0242841E0,-6.022856E-3,-3.6583832E-3,1.83181E-4,-2.2879392E-3,4.539436E-3,1.444215E-3,7.156881E-3,9.758431E-3],"split_indices":[0,0,0,0,1,1,0,0,0,0,0,0,0,0,0],"split_type":[0,0,0,0,0,0,0,0,0,0,0,0,0,0,0],"sum_hessian":[6.5546E4,4.5713E4,1.9833E4,2.0095E4,2.5618E4,1.26E4,7.233E3,6.197E3,1.3898E4,1.8498E4,7.12E3,7.462E3,5.138E3,4.158E3,3.075E3],"tree_param":{"num_deleted":"0","num_feature":"61","num_nodes":"15","size_leaf_vector":"1"}},{"base_weights":[1.2859406E-6,-2.4552771E-1,4.5024568E-1,-4.572531E-1,-9.355288E-2,2.8281286E-1,8.181469E-1,-6.159568E-3,-3.908243E-3,-1.1872523E-3,4.83138E-3,3.9977054E-3,1.0239393E-3,6.922418E-3,9.471731E-3],"categories":[],"categories_nodes":[],"categories_segments":[],"categories_sizes":[],"default_left":[1,0,0,0,1,1,0,0,0,0,0,0,0,0,0],"id":8,"left_children":[1,3,5,7,9,11,13,-1,-1,-1,-1,-1,-1,-1,-1],"loss_changes":[7.246204E3,1.3648062E3,1.4246094E3,1.866145E2,3.585319E2,3.3542883E2,1.1686133E2,0E0,0E0,0E0,0E0,0E0,0E0,0E0,0E0],"parents":[2147483647,0,0,1,1,2,2,3,3,4,4,5,5,6,6],"right_children":[2,4,6,8,10,12,14,-1,-1,-1,-1,-1,-1,-1,-1],"split_conditions":[-1.2135321E-2,-6.1108226E-1,1.0959165E0,-9.1055566E-1,1.3661952E0,-3.042068E-1,1.8446001E0,-6.159568E-3,-3.908243E-3,-1.1872523E-3,4.83138E-3,3.9977054E-3,1.0239393E-3,6.922418E-3,9.471731E-3],"split_indices":[0,0,0,0,2,1,0,0,0,0,0,0,0,0,0],"split_type":[0,0,0,0,0,0,0,0,0,0,0,0,0,0,0],"sum_hessian":[6.5546E4,4.2416E4,2.313E4,1.7723E4,2.4693E4,1.5897E4,7.233E3,5.227E3,1.2496E4,2.3661E4,1.032E3,9.644E3,6.253E3,3.664E3,3.569E3],"tree_param":{"num_deleted":"0","num_feature":"61","num_nodes":"15","size_leaf_vector":"1"}},{"base_weights":[1.4602433E-6,-2.1684426E-1,4.99794E-1,-4.3022278E-1,-4.9457874E-2,3.2168955E-1,8.0996746E-1,-5.904577E-3,-3.5873803E-3,1.8534569E-4,-2.2608233E-3,4.4541187E-3,1.4195386E-3,7.0130867E-3,9.566195E-3],"categories":[],"categories_nodes":[],"categories_segments":[],"categories_sizes":[],"default_left":[1,0,0,0,1,1,0,0,0,0,0,0,0,0,0],"id":9,"left_children":[1,3,5,7,9,11,13,-1,-1,-1,-1,-1,-1,-1,-1],"loss_changes":[7.103953E3,1.6327302E3,1.0954346E3,2.2997485E2,3.0766608E2,2.8014917E2,1.1460303E2,0E0,0E0,0E0,0E0,0E0,0E0,0E0,0E0],"parents":[2147483647,0,0,1,1,2,2,3,3,4,4,5,5,6,6],"right_children":[2,4,6,8,10,12,14,-1,-1,-1,-1,-1,-1,-1,-1],"split_conditions":[1.376014E-1,-5.511875E-1,1.0959165E0,-8.806083E-1,-2.1366943E-1,-2.589381E-1,2.0242841E0,-5.904577E-3,-3.5873803E-3,1.8534569E-4,-2.2608233E-3,4.4541187E-3,1.4195386E-3,7.0130867E-3,9.566195E-3],"split_indices":[0,0,0,0,1,1,0,0,0,0,0,0,0,0,0],"split_type":[0,0,0,0,0,0,0,0,0,0,0,0,0,0,0],"sum_hessian":[6.5546E4,4.5713E4,1.9833E4,2.0095E4,2.5618E4,1.26E4,7.233E3,6.197E3,1.3898E4,1.8498E4,7.12E3,7.462E3,5.138E3,4.158E3,3.075E3],"tree_param":{"num_deleted":"0","num_feature":"61","num_nodes":"15","size_leaf_vector":"1"}},{"base_weights":[1.8482777E-6,-2.407841E-1,4.415486E-1,-4.4828367E-1,-9.184252E-2,2.7756533E-1,8.0186987E-1,-6.0389517E-3,-3.8314923E-3,-1.1677386E-3,4.7932626E-3,3.9229053E-3,1.0059024E-3,6.7830957E-3,9.284936E-3],"categories":[],"categories_nodes":[],"categories_segments":[],"categories_sizes":[],"default_left":[1,0,0,0,1,1,0,0,0,0,0,0,0,0,0],"id":10,"left_children":[1,3,5,7,9,11,13,-1,-1,-1,-1,-1,-1,-1,-1],"loss_changes":[6.968948E3,1.3108696E3,1.3665107E3,1.7941333E2,3.516987E2,3.2274573E2,1.1255078E2,0E0,0E0,0E0,0E0,0E0,0E0,0E0,0E0],"parents":[2147483647,0,0,1,1,2,2,3,3,4,4,5,5,6,6],"right_children":[2,4,6,8,10,12,14,-1,-1,-1,-1,-1,-1,-1,-1],"split_conditions":[-1.2135321E-2,-6.1108226E-1,1.0959165E0,-9.1055566E-1,1.3661952E0,-3.042068E-1,1.8446001E0,-6.0389517E-3,-3.8314923E-3,-1.1677386E-3,4.7932626E-3,3.9229053E-3,1.0059024E-3,6.7830957E-3,9.284936E-3],"split_indices":[0,0,0,0,2,1,0,0,0,0,0,0,0,0,0],"split_type":[0,0,0,0,0,0,0,0,0,0,0,0,0,0,0],"sum_hessian":[6.5546E4,4.2416E4,2.313E4,1.7723E4,2.4693E4,1.5897E4,7.233E3,5.227E3,1.2496E4,2.3661E4,1.032E3,9.644E3,6.253E3,3.664E3,3.569E3],"tree_param":{"num_deleted":"0","num_feature":"61","num_nodes":"15","size_leaf_vector":"1"}},{"base_weights":[1.964979E-6,-2.2451647E-1,4.6427572E-1,-4.2183065E-1,-5.988615E-2,2.955481E-1,7.9385316E-1,-5.788622E-3,-3.5177502E-3,-8.40795E-4,4.339911E-3,4.132399E-3,1.1996448E-3,6.8721804E-3,9.377743E-3],"categories":[],"categories_nodes":[],"categories_segments":[],"categories_sizes":[],"default_left":[1,0,0,0,1,1,0,0,0,0,0,0,0,0,0],"id":11,"left_children":[1,3,5,7,9,11,13,-1,-1,-1,-1,-1,-1,-1,-1],"loss_changes":[6.8325933E3,1.4351782E3,1.1879038E3,2.2087158E2,2.8784122E2,2.9200525E2,1.1037598E2,0E0,0E0,0E0,0E0,0E0,0E0,0E0,0E0],"parents":[2147483647,0,0,1,1,2,2,3,3,4,4,5,5,6,6],"right_children":[2,4,6,8,10,12,14,-1,-1,-1,-1,-1,-1,-1,-1],"split_conditions":[7.770672E-2,-5.511875E-1,1.0959165E0,-8.806083E-1,1.3661952E0,-2.589381E-1,2.0242841E0,-5.788622E-3,-3.5177502E-3,-8.40795E-4,4.339911E-3,4.132399E-3,1.1996448E-3,6.8721804E-3,9.377743E-3],"split_indices":[0,0,0,0,2,1,0,0,0,0,0,0,0,0,0],"split_type":[0,0,0,0,0,0,0,0,0,0,0,0,0,0,0],"sum_hessian":[6.5546E4,4.4181E4,2.1365E4,2.0095E4,2.4086E4,1.4132E4,7.233E3,6.197E3,1.3898E4,2.2962E4,1.124E3,8.46E3,5.672E3,4.158E3,3.075E3],"tree_param":{"num_deleted":"0","num_feature":"61","num_nodes":"15","size_leaf_vector":"1"}},{"base_weights":[2.4173514E-6,-2.1058854E-1,4.853788E-1,-4.176125E-1,-4.818704E-2,3.1280687E-1,7.85917E-1,-5.730743E-3,-3.4825716E-3,1.9160725E-4,-2.231369E-3,4.333492E-3,1.3895141E-3,6.646576E-3,9.10183E-3],"categories":[],"categories_nodes":[],"categories_segments":[],"categories_sizes":[],"default_left":[1,0,0,0,1,1,0,0,0,0,0,0,0,0,0],"id":12,"left_children":[1,3,5,7,9,11,13,-1,-1,-1,-1,-1,-1,-1,-1],"loss_changes":[6.7000464E3,1.5369303E3,1.0284336E3,2.1647778E2,3.0185968E2,2.640182E2,1.083999E2,0E0,0E0,0E0,0E0,0E0,0E0,0E0,0E0],"parents":[2147483647,0,0,1,1,2,2,3,3,4,4,5,5,6,6],"right_children":[2,4,6,8,10,12,14,-1,-1,-1,-1,-1,-1,-1,-1],"split_conditions":[1.376014E-1,-5.511875E-1,1.0959165E0,-8.806083E-1,-2.1366943E-1,-3.4947547E-1,1.8446001E0,-5.730743E-3,-3.4825716E-3,1.9160725E-4,-2.231369E-3,4.333492E-3,1.3895141E-3,6.646576E-3,9.10183E-3],"split_indices":[0,0,0,0,1,1,0,0,0,0,0,0,0,0,0],"split_type":[0,0,0,0,0,0,0,0,0,0,0,0,0,0,0],"sum_hessian":[6.5546E4,4.5713E4,1.9833E4,2.0095E4,2.5618E4,1.26E4,7.233E3,6.197E3,1.3898E4,1.8498E4,7.12E3,7.44E3,5.16E3,3.664E3,3.569E3],"tree_param":{"num_deleted":"0","num_feature":"61","num_nodes":"15","size_leaf_vector":"1"}},{"base_weights":[2.6143512E-6,-2.3383926E-1,4.2881548E-1,-4.3522087E-1,-8.928911E-2,2.6712102E-1,7.722382E-1,-5.8634044E-3,-3.7196658E-3,-1.1375526E-3,4.7122138E-3,3.7867406E-3,9.4021246E-4,6.520945E-3,9.0108365E-3],"categories":[],"categories_nodes":[],"categories_segments":[],"categories_sizes":[],"default_left":[1,0,0,0,1,1,0,0,0,0,0,0,0,0,0],"id":13,"left_children":[1,3,5,7,9,11,13,-1,-1,-1,-1,-1,-1,-1,-1],"loss_changes":[6.572786E3,1.2347092E3,1.2842476E3,1.6920459E2,3.3869562E2,3.0366895E2,1.1402637E2,0E0,0E0,0E0,0E0,0E0,0E0,0E0,0E0],"parents":[2147483647,0,0,1,1,2,2,3,3,4,4,5,5,6,6],"right_children":[2,4,6,8,10,12,14,-1,-1,-1,-1,-1,-1,-1,-1],"split_conditions":[-1.2135321E-2,-6.1108226E-1,1.0659691E0,-9.1055566E-1,1.3661952E0,-3.042068E-1,1.8446001E0,-5.8634044E-3,-3.7196658E-3,-1.1375526E-3,4.7122138E-3,3.7867406E-3,9.4021246E-4,6.520945E-3,9.0108365E-3],"split_indices":[0,0,0,0,2,1,0,0,0,0,0,0,0,0,0],"split_type":[0,0,0,0,0,0,0,0,0,0,0,0,0,0,0],"sum_hessian":[6.5546E4,4.2416E4,2.313E4,1.7723E4,2.4693E4,1.5727E4,7.403E3,5.227E3,1.2496E4,2.3661E4,1.032E3,9.563E3,6.164E3,3.834E3,3.569E3],"tree_param":{"num_deleted":"0","num_feature":"61","num_nodes":"15","size_leaf_vector":"1"}},{"base_weights":[2.6973705E-6,-2.0651764E-1,4.7599697E-1,-4.0946552E-1,-4.7313627E-2,3.0699876E-1,7.7031136E-1,-5.6181788E-3,-3.4149736E-3,1.935479E-4,-2.2049882E-3,4.252E-3,1.3651971E-3,6.6784676E-3,9.120145E-3],"categories":[],"categories_nodes":[],"categories_segments":[],"categories_sizes":[],"default_left":[1,0,0,0,1,1,0,0,0,0,0,0,0,0,0],"id":14,"left_children":[1,3,5,7,9,11,13,-1,-1,-1,-1,-1,-1,-1,-1],"loss_changes":[6.4435317E3,1.4770054E3,9.862793E2,2.079043E2,2.958008E2,2.5386255E2,1.0442529E2,0E0,0E0,0E0,0E0,0E0,0E0,0E0,0E0],"parents":[2147483647,0,0,1,1,2,2,3,3,4,4,5,5,6,6],"right_children":[2,4,6,8,10,12,14,-1,-1,-1,-1,-1,-1,-1,-1],"split_conditions":[1.376014E-1,-5.511875E-1,1.0959165E0,-8.806083E-1,-2.1366943E-1,-3.4947547E-1,2.0542314E0,-5.6181788E-3,-3.4149736E-3,1.935479E-4,-2.2049882E-3,4.252E-3,1.3651971E-3,6.6784676E-3,9.120145E-3],"split_indices":[0,0,0,0,1,1,0,0,0,0,0,0,0,0,0],"split_type":[0,0,0,0,0,0,0,0,0,0,0,0,0,0,0],"sum_hessian":[6.5546E4,4.5713E4,1.9833E4,2.0095E4,2.5618E4,1.26E4,7.233E3,6.197E3,1.3898E4,1.8498E4,7.12E3,7.44E3,5.16E3,4.201E3,3.032E3],"tree_param":{"num_deleted":"0","num_feature":"61","num_nodes":"15","size_leaf_vector":"1"}},{"base_weights":[2.7397532E-6,-2.2932224E-1,4.2053264E-1,-4.2668432E-1,-8.765726E-2,2.621457E-1,7.569305E-1,-6.591021E-3,-3.8666727E-3,-1.1188962E-3,4.6749646E-3,3.7156942E-3,9.2349976E-4,6.390727E-3,8.833248E-3],"categories":[],"categories_nodes":[],"categories_segments":[],"categories_sizes":[],"default_left":[1,0,0,0,1,1,0,0,0,0,0,0,0,0,0],"id":15,"left_children":[1,3,5,7,9,11,13,-1,-1,-1,-1,-1,-1,-1,-1],"loss_changes":[6.321319E3,1.1859121E3,1.2322451E3,1.6459033E2,3.3225296E2,2.921869E2,1.0972949E2,0E0,0E0,0E0,0E0,0E0,0E0,0E0,0E0],"parents":[2147483647,0,0,1,1,2,2,3,3,4,4,5,5,6,6],"right_children":[2,4,6,8,10,12,14,-1,-1,-1,-1,-1,-1,-1,-1],"split_conditions":[-1.2135321E-2,-6.1108226E-1,1.0659691E0,-1.0003977E0,1.3661952E0,-3.042068E-1,1.8446001E0,-6.591021E-3,-3.8666727E-3,-1.1188962E-3,4.6749646E-3,3.7156942E-3,9.2349976E-4,6.390727E-3,8.833248E-3],"split_indices":[0,0,0,0,2,1,0,0,0,0,0,0,0,0,0],"split_type":[0,0,0,0,0,0,0,0,0,0,0,0,0,0,0],"sum_hessian":[6.5546E4,4.2416E4,2.313E4,1.7723E4,2.4693E4,1.5727E4,7.403E3,2.601E3,1.5122E4,2.3661E4,1.032E3,9.563E3,6.164E3,3.834E3,3.569E3],"tree_param":{"num_deleted":"0","num_feature":"61","num_nodes":"15","size_leaf_vector":"1"}},{"base_weights":[3.0132542E-6,-2.0252553E-1,4.667969E-1,-4.0147704E-1,-4.6456512E-2,3.0129874E-1,7.550158E-1,-5.5119116E-3,-3.3468595E-3,1.9540246E-4,-2.1789698E-3,4.167899E-3,1.3352057E-3,6.826111E-3,9.494952E-3],"categories":[],"categories_nodes":[],"categories_segments":[],"categories_sizes":[],"default_left":[1,0,0,0,1,1,0,0,0,0,0,0,0,0,0],"id":16,"left_children":[1,3,5,7,9,11,13,-1,-1,-1,-1,-1,-1,-1,-1],"loss_changes":[6.1968477E3,1.4194087E3,9.4584863E2,2.0076685E2,2.898708E2,2.4411267E2,1.0121533E2,0E0,0E0,0E0,0E0,0E0,0E0,0E0,0E0],"parents":[2147483647,0,0,1,1,2,2,3,3,4,4,5,5,6,6],"right_children":[2,4,6,8,10,12,14,-1,-1,-1,-1,-1,-1,-1,-1],"split_conditions":[1.376014E-1,-5.511875E-1,1.0959165E0,-8.806083E-1,-2.1366943E-1,-2.589381E-1,2.5034418E0,-5.5119116E-3,-3.3468595E-3,1.9540246E-4,-2.1789698E-3,4.167899E-3,1.3352057E-3,6.826111E-3,9.494952E-3],"split_indices":[0,0,0,0,1,1,0,0,0,0,0,0,0,0,0],"split_type":[0,0,0,0,0,0,0,0,0,0,0,0,0,0,0],"sum_hessian":[6.5546E4,4.5713E4,1.9833E4,2.0095E4,2.5618E4,1.26E4,7.233E3,6.197E3,1.3898E4,1.8498E4,7.12E3,7.462E3,5.138E3,5.274E3,1.959E3],"tree_param":{"num_deleted":"0","num_feature":"61","num_nodes":"15","size_leaf_vector":"1"}},{"base_weights":[3.109499E-6,-2.248927E-1,4.1241097E-1,-4.183142E-1,-8.605627E-2,2.204382E-1,6.803348E-1,-6.470037E-3,-3.7893918E-3,-1.1005721E-3,4.6379506E-3,3.2779914E-3,4.358247E-4,5.385091E-3,8.260093E-3],"categories":[],"categories_nodes":[],"categories_segments":[],"categories_sizes":[],"default_left":[1,0,0,0,1,1,0,0,0,0,0,0,0,0,0],"id":17,"left_children":[1,3,5,7,9,11,13,-1,-1,-1,-1,-1,-1,-1,-1],"loss_changes":[6.0794985E3,1.1390281E3,1.1895715E3,1.5935303E2,3.2593652E2,2.558789E2,1.9903076E2,0E0,0E0,0E0,0E0,0E0,0E0,0E0,0E0],"parents":[2147483647,0,0,1,1,2,2,3,3,4,4,5,5,6,6],"right_children":[2,4,6,8,10,12,14,-1,-1,-1,-1,-1,-1,-1,-1],"split_conditions":[-1.2135321E-2,-6.1108226E-1,7.96443E-1,-1.0003977E0,1.3661952E0,-2.589381E-1,1.5151793E0,-6.470037E-3,-3.7893918E-3,-1.1005721E-3,4.6379506E-3,3.2779914E-3,4.358247E-4,5.385091E-3,8.260093E-3],"split_indices":[0,0,0,0,2,1,0,0,0,0,0,0,0,0,0],"split_type":[0,0,0,0,0,0,0,0,0,0,0,0,0,0,0],"sum_hessian":[6.5546E4,4.2416E4,2.313E4,1.7723E4,2.4693E4,1.3476E4,9.654E3,2.601E3,1.5122E4,2.3661E4,1.032E3,8.385E3,5.091E3,4.894E3,4.76E3],"tree_param":{"num_deleted":"0","num_feature":"61","num_nodes":"15","size_leaf_vector":"1"}},{"base_weights":[3.145276E-6,-2.2264414E-1,4.0828767E-1,-3.9364535E-1,-6.868556E-2,2.1823423E-1,6.7353284E-1,-5.4076645E-3,-3.280111E-3,-9.4372843E-4,4.6240957E-3,3.2452177E-3,4.3146728E-4,5.331248E-3,8.177512E-3],"categories":[],"categories_nodes":[],"categories_segments":[],"categories_sizes":[],"default_left":[1,0,0,0,1,1,0,0,0,0,0,0,0,0,0],"id":18,"left_children":[1,3,5,7,9,11,13,-1,-1,-1,-1,-1,-1,-1,-1],"loss_changes":[5.958539E3,1.1166897E3,1.165904E3,1.9387305E2,3.045691E2,2.5078784E2,1.9507227E2,0E0,0E0,0E0,0E0,0E0,0E0,0E0,0E0],"parents":[2147483647,0,0,1,1,2,2,3,3,4,4,5,5,6,6],"right_children":[2,4,6,8,10,12,14,-1,-1,-1,-1,-1,-1,-1,-1],"split_conditions":[-1.2135321E-2,-5.511875E-1,7.96443E-1,-8.806083E-1,1.3661952E0,-2.589381E-1,1.5151793E0,-5.4076645E-3,-3.280111E-3,-9.4372843E-4,4.6240957E-3,3.2452177E-3,4.3146728E-4,5.331248E-3,8.177512E-3],"split_indices":[0,0,0,0,2,1,0,0,0,0,0,0,0,0,0],"split_type":[0,0,0,0,0,0,0,0,0,0,0,0,0,0,0],"sum_hessian":[6.5546E4,4.2416E4,2.313E4,2.0095E4,2.2321E4,1.3476E4,9.654E3,6.197E3,1.3898E4,2.1292E4,1.029E3,8.385E3,5.091E3,4.894E3,4.76E3],"tree_param":{"num_deleted":"0","num_feature":"61","num_nodes":"15","size_leaf_vector":"1"}},{"base_weights":[3.3187494E-6,-1.9668305E-1,4.5333198E-1,-3.8970974E-1,-4.5261797E-2,2.927505E-1,7.3298824E-1,-5.3536003E-3,-3.2473165E-3,2.0047644E-4,-2.1491689E-3,4.057996E-3,1.2970244E-3,6.6203373E-3,9.235761E-3],"categories":[],"categories_nodes":[],"categories_segments":[],"categories_sizes":[],"default_left":[1,0,0,0,1,1,0,0,0,0,0,0,0,0,0],"id":19,"left_children":[1,3,5,7,9,11,13,-1,-1,-1,-1,-1,-1,-1,-1],"loss_changes":[5.844493E3,1.3361267E3,8.9048315E2,1.900166E2,2.838649E2,2.322146E2,9.721411E1,0E0,0E0,0E0,0E0,0E0,0E0,0E0,0E0],"parents":[2147483647,0,0,1,1,2,2,3,3,4,4,5,5,6,6],"right_children":[2,4,6,8,10,12,14,-1,-1,-1,-1,-1,-1,-1,-1],"split_conditions":[1.376014E-1,-5.511875E-1,1.0959165E0,-8.806083E-1,-2.1366943E-1,-3.4947547E-1,2.5034418E0,-5.3536003E-3,-3.2473165E-3,2.0047644E-4,-2.1491689E-3,4.057996E-3,1.2970244E-3,6.6203373E-3,9.235761E-3],"split_indices":[0,0,0,0,1,1,0,0,0,0,0,0,0,0,0],"split_type":[0,0,0,0,0,0,0,0,0,0,0,0,0,0,0],"sum_hessian":[6.5546E4,4.5713E4,1.9833E4,2.0095E4,2.5618E4,1.26E4,7.233E3,6.197E3,1.3898E4,1.8498E4,7.12E3,7.44E3,5.16E3,5.274E3,1.959E3],"tree_param":{"num_deleted":"0","num_feature":"61","num_nodes":"15","size_leaf_vector":"1"}},{"base_weights":[3.5905916E-6,-1.7244968E-1,5.070386E-1,-3.7689275E-1,-1.6398994E-2,3.4477022E-1,7.341458E-1,-3.227236E-3,-5.586497E-3,5.0228485E-4,-1.822324E-3,4.688282E-3,1.7852887E-3,6.6297636E-3,9.143455E-3],"categories":[],"categories_nodes":[],"categories_segments":[],"categories_sizes":[],"default_left":[1,0,0,1,1,1,0,0,0,0,0,0,0,0,0],"id":20,"left_children":[1,3,5,7,9,11,13,-1,-1,-1,-1,-1,-1,-1,-1],"loss_changes":[5.7315063E3,1.5604567E3,6.1282227E2,2.0828125E2,3.0651016E2,2.0006812E2,8.829468E1,0E0,0E0,0E0,0E0,0E0,0E0,0E0,0E0],"parents":[2147483647,0,0,1,1,2,2,3,3,4,4,5,5,6,6],"right_children":[2,4,6,8,10,12,14,-1,-1,-1,-1,-1,-1,-1,-1],"split_conditions":[2.8733814E-1,-5.212402E-1,1.1558112E0,-3.4947547E-1,-1.6840076E-1,-2.1366943E-1,2.5034418E0,-3.227236E-3,-5.586497E-3,5.0228485E-4,-1.822324E-3,4.688282E-3,1.7852887E-3,6.6297636E-3,9.143455E-3],"split_indices":[0,0,0,1,1,1,0,0,0,0,0,0,0,0,0],"split_type":[0,0,0,0,0,0,0,0,0,0,0,0,0,0,0],"sum_hessian":[6.5546E4,4.8911E4,1.6635E4,2.1172E4,2.7739E4,9.704E3,6.931E3,1.6313E4,4.859E3,1.9789E4,7.95E3,5.556E3,4.148E3,4.972E3,1.959E3],"tree_param":{"num_deleted":"0","num_feature":"61","num_nodes":"15","size_leaf_vector":"1"}},{"base_weights":[3.6527763E-6,-2.1639729E-1,3.9683384E-1,-4.0235654E-1,-8.291716E-2,2.1227568E-1,6.544095E-1,-6.258642E-3,-3.6387413E-3,-1.0644788E-3,4.5616E-3,3.1569242E-3,4.191723E-4,5.253679E-3,8.019941E-3],"categories":[],"categories_nodes":[],"categories_segments":[],"categories_sizes":[],"default_left":[1,0,0,0,1,1,0,0,0,0,0,0,0,0,0],"id":21,"left_children":[1,3,5,7,9,11,13,-1,-1,-1,-1,-1,-1,-1,-1],"loss_changes":[5.6288965E3,1.0528357E3,1.0994551E3,1.522185E2,3.1328876E2,2.374234E2,1.834541E2,0E0,0E0,0E0,0E0,0E0,0E0,0E0,0E0],"parents":[2147483647,0,0,1,1,2,2,3,3,4,4,5,5,6,6],"right_children":[2,4,6,8,10,12,14,-1,-1,-1,-1,-1,-1,-1,-1],"split_conditions":[-1.2135321E-2,-6.1108226E-1,7.96443E-1,-1.0003977E0,1.3661952E0,-2.589381E-1,1.6050214E0,-6.258642E-3,-3.6387413E-3,-1.0644788E-3,4.5616E-3,3.1569242E-3,4.191723E-4,5.253679E-3,8.019941E-3],"split_indices":[0,0,0,0,2,1,0,0,0,0,0,0,0,0,0],"split_type":[0,0,0,0,0,0,0,0,0,0,0,0,0,0,0],"sum_hessian":[6.5546E4,4.2416E4,2.313E4,1.7723E4,2.4693E4,1.3476E4,9.654E3,2.601E3,1.5122E4,2.3661E4,1.032E3,8.385E3,5.091E3,5.153E3,4.501E3],"tree_param":{"num_deleted":"0","num_feature":"61","num_nodes":"15","size_leaf_vector":"1"}},{"base_weights":[3.5761732E-6,-2.1423371E-1,3.928661E-1,-3.983339E-1,-8.208801E-2,2.1015318E-1,6.4786655E-1,-3.4792302E-3,-5.674741E-3,-1.0538362E-3,4.5160297E-3,3.1253614E-3,4.14977E-4,5.1304256E-3,7.863491E-3],"categories":[],"categories_nodes":[],"categories_segments":[],"categories_sizes":[],"default_left":[1,0,0,1,1,1,0,0,0,0,0,0,0,0,0],"id":22,"left_children":[1,3,5,7,9,11,13,-1,-1,-1,-1,-1,-1,-1,-1],"loss_changes":[5.5169E3,1.0318901E3,1.0775803E3,1.5092627E2,3.070596E2,2.327005E2,1.798628E2,0E0,0E0,0E0,0E0,0E0,0E0,0E0,0E0],"parents":[2147483647,0,0,1,1,2,2,3,3,4,4,5,5,6,6],"right_children":[2,4,6,8,10,12,14,-1,-1,-1,-1,-1,-1,-1,-1],"split_conditions":[-1.2135321E-2,-6.1108226E-1,7.96443E-1,-3.4947547E-1,1.3661952E0,-2.589381E-1,1.5151793E0,-3.4792302E-3,-5.674741E-3,-1.0538362E-3,4.5160297E-3,3.1253614E-3,4.14977E-4,5.1304256E-3,7.863491E-3],"split_indices":[0,0,0,1,2,1,0,0,0,0,0,0,0,0,0],"split_type":[0,0,0,0,0,0,0,0,0,0,0,0,0,0,0],"sum_hessian":[6.5546E4,4.2416E4,2.313E4,1.7723E4,2.4693E4,1.3476E4,9.654E3,1.3656E4,4.067E3,2.3661E4,1.032E3,8.385E3,5.091E3,4.894E3,4.76E3],"tree_param":{"num_deleted":"0","num_feature":"61","num_nodes":"15","size_leaf_vector":"1"}},{"base_weights":[3.6703666E-6,-1.6758081E-1,4.927238E-1,-3.6607957E-1,-1.6067399E-2,3.3551413E-1,7.127508E-1,-4.9967337E-3,-2.9468234E-3,4.971936E-4,-1.7980832E-3,4.567942E-3,1.7299572E-3,8.153679E-3,5.8834935E-3],"categories":[],"categories_nodes":[],"categories_segments":[],"categories_sizes":[],"default_left":[1,0,0,0,1,1,1,0,0,0,0,0,0,0,0],"id":23,"left_children":[1,3,5,7,9,11,13,-1,-1,-1,-1,-1,-1,-1,-1],"loss_changes":[5.4124453E3,1.4710336E3,5.752063E2,2.0180566E2,2.988238E2,1.9120898E2,8.801245E1,0E0,0E0,0E0,0E0,0E0,0E0,0E0,0E0],"parents":[2147483647,0,0,1,1,2,2,3,3,4,4,5,5,6,6],"right_children":[2,4,6,8,10,12,14,-1,-1,-1,-1,-1,-1,-1,-1],"split_conditions":[2.8733814E-1,-5.212402E-1,1.1558112E0,-8.50661E-1,-1.6840076E-1,-2.1366943E-1,1.4848E-1,-4.9967337E-3,-2.9468234E-3,4.971936E-4,-1.7980832E-3,4.567942E-3,1.7299572E-3,8.153679E-3,5.8834935E-3],"split_indices":[0,0,0,0,1,1,1,0,0,0,0,0,0,0,0],"split_type":[0,0,0,0,0,0,0,0,0,0,0,0,0,0,0],"sum_hessian":[6.5546E4,4.8911E4,1.6635E4,2.1172E4,2.7739E4,9.704E3,6.931E3,7.372E3,1.38E4,1.9789E4,7.95E3,5.556E3,4.148E3,3.795E3,3.136E3],"tree_param":{"num_deleted":"0","num_feature":"61","num_nodes":"15","size_leaf_vector":"1"}},{"base_weights":[3.796103E-6,-2.102012E-1,3.8547203E-1,-3.9055222E-1,-8.074663E-2,2.0642428E-1,6.3535714E-1,-3.4063507E-3,-5.5803685E-3,-1.0381422E-3,4.477204E-3,3.069294E-3,4.0862145E-4,5.3231E-3,8.1085E-3],"categories":[],"categories_nodes":[],"categories_segments":[],"categories_sizes":[],"default_left":[1,0,0,1,1,1,0,0,0,0,0,0,0,0,0],"id":24,"left_children":[1,3,5,7,9,11,13,-1,-1,-1,-1,-1,-1,-1,-1],"loss_changes":[5.3111807E3,9.902894E2,1.0347812E3,1.4798877E2,3.010779E2,2.2424268E2,1.7416992E2,0E0,0E0,0E0,0E0,0E0,0E0,0E0,0E0],"parents":[2147483647,0,0,1,1,2,2,3,3,4,4,5,5,6,6],"right_children":[2,4,6,8,10,12,14,-1,-1,-1,-1,-1,-1,-1,-1],"split_conditions":[-1.2135321E-2,-6.1108226E-1,7.96443E-1,-3.4947547E-1,1.3661952E0,-2.589381E-1,1.8446001E0,-3.4063507E-3,-5.5803685E-3,-1.0381422E-3,4.477204E-3,3.069294E-3,4.0862145E-4,5.3231E-3,8.1085E-3],"split_indices":[0,0,0,1,2,1,0,0,0,0,0,0,0,0,0],"split_type":[0,0,0,0,0,0,0,0,0,0,0,0,0,0,0],"sum_hessian":[6.5546E4,4.2416E4,2.313E4,1.7723E4,2.4693E4,1.3476E4,9.654E3,1.3656E4,4.067E3,2.3661E4,1.032E3,8.385E3,5.091E3,6.085E3,3.569E3],"tree_param":{"num_deleted":"0","num_feature":"61","num_nodes":"15","size_leaf_vector":"1"}},{"base_weights":[4.157701E-6,-1.9600387E-1,4.0532228E-1,-3.6747172E-1,-5.2938577E-2,2.5911248E-1,6.9091505E-1,-3.1589058E-3,-5.4067555E-3,9.770689E-5,-2.1950798E-3,3.629677E-3,1.0417181E-3,7.931843E-3,5.651641E-3],"categories":[],"categories_nodes":[],"categories_segments":[],"categories_sizes":[],"default_left":[1,0,0,1,1,1,1,0,0,0,0,0,0,0,0],"id":25,"left_children":[1,3,5,7,9,11,13,-1,-1,-1,-1,-1,-1,-1,-1],"loss_changes":[5.207501E3,1.0838136E3,8.919895E2,1.7936768E2,2.5160158E2,2.2738196E2,9.2583984E1,0E0,0E0,0E0,0E0,0E0,0E0,0E0,0E0],"parents":[2147483647,0,0,1,1,2,2,3,3,4,4,5,5,6,6],"right_children":[2,4,6,8,10,12,14,-1,-1,-1,-1,-1,-1,-1,-1],"split_conditions":[7.770672E-2,-5.511875E-1,1.0959165E0,-3.4947547E-1,-2.1366943E-1,-2.589381E-1,1.4848E-1,-3.1589058E-3,-5.4067555E-3,9.770689E-5,-2.1950798E-3,3.629677E-3,1.0417181E-3,7.931843E-3,5.651641E-3],"split_indices":[0,0,0,1,1,1,1,0,0,0,0,0,0,0,0],"split_type":[0,0,0,0,0,0,0,0,0,0,0,0,0,0,0],"sum_hessian":[6.5546E4,4.4181E4,2.1365E4,2.0095E4,2.4086E4,1.4132E4,7.233E3,1.5486E4,4.609E3,1.7499E4,6.587E3,8.46E3,5.672E3,3.986E3,3.247E3],"tree_param":{"num_deleted":"0","num_feature":"61","num_nodes":"15","size_leaf_vector":"1"}},{"base_weights":[4.311358E-6,-1.6286425E-1,4.7885907E-1,-3.554731E-1,-1.5846603E-2,3.265908E-1,6.9196993E-1,-4.729456E-3,-2.7659845E-3,4.8572244E-4,-1.7618281E-3,4.4481517E-3,1.6816722E-3,7.9269465E-3,5.6986497E-3],"categories":[],"categories_nodes":[],"categories_segments":[],"categories_sizes":[],"default_left":[1,0,0,0,1,1,1,0,0,0,0,0,0,0,0],"id":26,"left_children":[1,3,5,7,9,11,13,-1,-1,-1,-1,-1,-1,-1,-1],"loss_changes":[5.1121143E3,1.3850305E3,5.3961206E2,1.9604956E2,2.8652597E2,1.8169531E2,8.480493E1,0E0,0E0,0E0,0E0,0E0,0E0,0E0,0E0],"parents":[2147483647,0,0,1,1,2,2,3,3,4,4,5,5,6,6],"right_children":[2,4,6,8,10,12,14,-1,-1,-1,-1,-1,-1,-1,-1],"split_conditions":[2.8733814E-1,-5.212402E-1,1.1558112E0,-8.2071364E-1,-1.6840076E-1,-2.1366943E-1,1.4848E-1,-4.729456E-3,-2.7659845E-3,4.8572244E-4,-1.7618281E-3,4.4481517E-3,1.6816722E-3,7.9269465E-3,5.6986497E-3],"split_indices":[0,0,0,0,1,1,1,0,0,0,0,0,0,0,0],"split_type":[0,0,0,0,0,0,0,0,0,0,0,0,0,0,0],"sum_hessian":[6.5546E4,4.8911E4,1.6635E4,2.1172E4,2.7739E4,9.704E3,6.931E3,8.503E3,1.2669E4,1.9789E4,7.95E3,5.556E3,4.148E3,3.795E3,3.136E3],"tree_param":{"num_deleted":"0","num_feature":"61","num_nodes":"15","size_leaf_vector":"1"}},{"base_weights":[4.453608E-6,-2.0424715E-1,3.745555E-1,-3.7926546E-1,-7.862032E-2,2.005752E-1,6.173683E-1,-5.9791296E-3,-3.4162079E-3,-1.0147182E-3,4.4489433E-3,2.9832E-3,3.9560167E-4,5.1646507E-3,7.892114E-3],"categories":[],"categories_nodes":[],"categories_segments":[],"categories_sizes":[],"default_left":[1,0,0,0,1,1,0,0,0,0,0,0,0,0,0],"id":27,"left_children":[1,3,5,7,9,11,13,-1,-1,-1,-1,-1,-1,-1,-1],"loss_changes":[5.0145957E3,9.325925E2,9.7703687E2,1.4568042E2,2.9546173E2,2.1209436E2,1.6700562E2,0E0,0E0,0E0,0E0,0E0,0E0,0E0,0E0],"parents":[2147483647,0,0,1,1,2,2,3,3,4,4,5,5,6,6],"right_children":[2,4,6,8,10,12,14,-1,-1,-1,-1,-1,-1,-1,-1],"split_conditions":[-1.2135321E-2,-6.1108226E-1,7.96443E-1,-1.0003977E0,1.3661952E0,-2.589381E-1,1.8446001E0,-5.9791296E-3,-3.4162079E-3,-1.0147182E-3,4.4489433E-3,2.9832E-3,3.9560167E-4,5.1646507E-3,7.892114E-3],"split_indices":[0,0,0,0,2,1,0,0,0,0,0,0,0,0,0],"split_type":[0,0,0,0,0,0,0,0,0,0,0,0,0,0,0],"sum_hessian":[6.5546E4,4.2416E4,2.313E4,1.7723E4,2.4693E4,1.3476E4,9.654E3,2.601E3,1.5122E4,2.3661E4,1.032E3,8.385E3,5.091E3,6.085E3,3.569E3],"tree_param":{"num_deleted":"0","num_feature":"61","num_nodes":"15","size_leaf_vector":"1"}},{"base_weights":[4.532452E-6,-1.5974455E-1,4.6968758E-1,-3.4858012E-1,-1.5607014E-2,3.2050177E-1,6.7848426E-1,-2.9633166E-3,-5.238955E-3,4.8086751E-4,-1.7413851E-3,4.3681804E-3,1.6463533E-3,7.783627E-3,5.574076E-3],"categories":[],"categories_nodes":[],"categories_segments":[],"categories_sizes":[],"default_left":[1,0,0,1,1,1,1,0,0,0,0,0,0,0,0],"id":28,"left_children":[1,3,5,7,9,11,13,-1,-1,-1,-1,-1,-1,-1,-1],"loss_changes":[4.9181606E3,1.3312958E3,5.1798584E2,1.9378833E2,2.8011215E2,1.7587775E2,8.339429E1,0E0,0E0,0E0,0E0,0E0,0E0,0E0,0E0],"parents":[2147483647,0,0,1,1,2,2,3,3,4,4,5,5,6,6],"right_children":[2,4,6,8,10,12,14,-1,-1,-1,-1,-1,-1,-1,-1],"split_conditions":[2.8733814E-1,-5.212402E-1,1.1558112E0,-3.4947547E-1,-1.6840076E-1,-2.1366943E-1,1.4848E-1,-2.9633166E-3,-5.238955E-3,4.8086751E-4,-1.7413851E-3,4.3681804E-3,1.6463533E-3,7.783627E-3,5.574076E-3],"split_indices":[0,0,0,1,1,1,1,0,0,0,0,0,0,0,0],"split_type":[0,0,0,0,0,0,0,0,0,0,0,0,0,0,0],"sum_hessian":[6.5546E4,4.8911E4,1.6635E4,2.1172E4,2.7739E4,9.704E3,6.931E3,1.6313E4,4.859E3,1.9789E4,7.95E3,5.556E3,4.148E3,3.795E3,3.136E3],"tree_param":{"num_deleted":"0","num_feature":"61","num_nodes":"15","size_leaf_vector":"1"}},{"base_weights":[4.639885E-6,-2.004036E-1,3.6750785E-1,-3.8844952E-1,-8.769045E-2,1.9328615E-1,6.003706E-1,-5.8830916E-3,-3.4930524E-3,-1.0915925E-3,4.41619E-3,2.8951648E-3,3.375232E-4,4.805571E-3,7.4389623E-3],"categories":[],"categories_nodes":[],"categories_segments":[],"categories_sizes":[],"default_left":[1,0,0,0,1,1,0,0,0,0,0,0,0,0,0],"id":29,"left_children":[1,3,5,7,9,11,13,-1,-1,-1,-1,-1,-1,-1,-1],"loss_changes":[4.8276543E3,8.990049E2,9.383025E2,1.24154785E2,3.014347E2,2.0314319E2,1.698689E2,0E0,0E0,0E0,0E0,0E0,0E0,0E0,0E0],"parents":[2147483647,0,0,1,1,2,2,3,3,4,4,5,5,6,6],"right_children":[2,4,6,8,10,12,14,-1,-1,-1,-1,-1,-1,-1,-1],"split_conditions":[-1.2135321E-2,-6.410296E-1,7.6649565E-1,-1.0003977E0,1.3661952E0,-2.589381E-1,1.6050214E0,-5.8830916E-3,-3.4930524E-3,-1.0915925E-3,4.41619E-3,2.8951648E-3,3.375232E-4,4.805571E-3,7.4389623E-3],"split_indices":[0,0,0,0,2,1,0,0,0,0,0,0,0,0,0],"split_type":[0,0,0,0,0,0,0,0,0,0,0,0,0,0,0],"sum_hessian":[6.5546E4,4.2416E4,2.313E4,1.5895E4,2.6521E4,1.3232E4,9.898E3,2.601E3,1.3294E4,2.5488E4,1.033E3,8.253E3,4.979E3,5.397E3,4.501E3],"tree_param":{"num_deleted":"0","num_feature":"61","num_nodes":"15","size_leaf_vector":"1"}},{"base_weights":[4.9231635E-6,-1.7698391E-1,4.079341E-1,-3.499537E-1,-4.1296393E-2,2.6454175E-1,6.5765476E-1,-2.994298E-3,-5.1960964E-3,2.0252749E-4,-2.0118353E-3,3.6753311E-3,1.1600008E-3,5.9010964E-3,8.391051E-3],"categories":[],"categories_nodes":[],"categories_segments":[],"categories_sizes":[],"default_left":[1,0,0,1,1,1,0,0,0,0,0,0,0,0,0],"id":30,"left_children":[1,3,5,7,9,11,13,-1,-1,-1,-1,-1,-1,-1,-1],"loss_changes":[4.7324937E3,1.0728859E3,7.100427E2,1.7210083E2,2.5211848E2,1.9273389E2,8.816504E1,0E0,0E0,0E0,0E0,0E0,0E0,0E0,0E0],"parents":[2147483647,0,0,1,1,2,2,3,3,4,4,5,5,6,6],"right_children":[2,4,6,8,10,12,14,-1,-1,-1,-1,-1,-1,-1,-1],"split_conditions":[1.376014E-1,-5.511875E-1,1.0959165E0,-3.4947547E-1,-2.1366943E-1,-3.4947547E-1,2.5034418E0,-2.994298E-3,-5.1960964E-3,2.0252749E-4,-2.0118353E-3,3.6753311E-3,1.1600008E-3,5.9010964E-3,8.391051E-3],"split_indices":[0,0,0,1,1,1,0,0,0,0,0,0,0,0,0],"split_type":[0,0,0,0,0,0,0,0,0,0,0,0,0,0,0],"sum_hessian":[6.5546E4,4.5713E4,1.9833E4,2.0095E4,2.5618E4,1.26E4,7.233E3,1.5486E4,4.609E3,1.8498E4,7.12E3,7.44E3,5.16E3,5.274E3,1.959E3],"tree_param":{"num_deleted":"0","num_feature":"61","num_nodes":"15","size_leaf_vector":"1"}},{"base_weights":[5.229168E-6,-1.9653313E-1,3.604119E-1,-3.8107884E-1,-8.591796E-2,1.8946663E-1,5.888955E-1,-6.047978E-3,-3.4685007E-3,-1.0717203E-3,4.3809656E-3,2.8387606E-3,3.2951593E-4,4.9231667E-3,7.5997524E-3],"categories":[],"categories_nodes":[],"categories_segments":[],"categories_sizes":[],"default_left":[1,0,0,0,1,1,0,0,0,0,0,0,0,0,0],"id":31,"left_children":[1,3,5,7,9,11,13,-1,-1,-1,-1,-1,-1,-1,-1],"loss_changes":[4.64301E3,8.65849E2,9.03343E2,1.2151611E2,2.954342E2,1.9552805E2,1.6318433E2,0E0,0E0,0E0,0E0,0E0,0E0,0E0,0E0],"parents":[2147483647,0,0,1,1,2,2,3,3,4,4,5,5,6,6],"right_children":[2,4,6,8,10,12,14,-1,-1,-1,-1,-1,-1,-1,-1],"split_conditions":[-1.2135321E-2,-6.410296E-1,7.6649565E-1,-1.0303451E0,1.3661952E0,-2.589381E-1,1.8446001E0,-6.047978E-3,-3.4685007E-3,-1.0717203E-3,4.3809656E-3,2.8387606E-3,3.2951593E-4,4.9231667E-3,7.5997524E-3],"split_indices":[0,0,0,0,2,1,0,0,0,0,0,0,0,0,0],"split_type":[0,0,0,0,0,0,0,0,0,0,0,0,0,0,0],"sum_hessian":[6.5546E4,4.2416E4,2.313E4,1.5895E4,2.6521E4,1.3232E4,9.898E3,2.107E3,1.3788E4,2.5488E4,1.033E3,8.253E3,4.979E3,6.329E3,3.569E3],"tree_param":{"num_deleted":"0","num_feature":"61","num_nodes":"15","size_leaf_vector":"1"}},{"base_weights":[5.3584545E-6,-1.537679E-1,4.521187E-1,-3.354441E-1,-1.509508E-2,3.091013E-1,6.5228194E-1,-2.842396E-3,-5.072578E-3,4.7191992E-4,-1.7012539E-3,4.218556E-3,1.5800837E-3,7.515776E-3,5.3191897E-3],"categories":[],"categories_nodes":[],"categories_segments":[],"categories_sizes":[],"default_left":[1,0,0,1,1,1,1,0,0,0,0,0,0,0,0],"id":32,"left_children":[1,3,5,7,9,11,13,-1,-1,-1,-1,-1,-1,-1,-1],"loss_changes":[4.55709E3,1.2322621E3,4.7603418E2,1.8612793E2,2.6787613E2,1.652713E2,8.244824E1,0E0,0E0,0E0,0E0,0E0,0E0,0E0,0E0],"parents":[2147483647,0,0,1,1,2,2,3,3,4,4,5,5,6,6],"right_children":[2,4,6,8,10,12,14,-1,-1,-1,-1,-1,-1,-1,-1],"split_conditions":[2.8733814E-1,-5.212402E-1,1.1558112E0,-3.4947547E-1,-1.6840076E-1,-2.1366943E-1,1.4848E-1,-2.842396E-3,-5.072578E-3,4.7191992E-4,-1.7012539E-3,4.218556E-3,1.5800837E-3,7.515776E-3,5.3191897E-3],"split_indices":[0,0,0,1,1,1,1,0,0,0,0,0,0,0,0],"split_type":[0,0,0,0,0,0,0,0,0,0,0,0,0,0,0],"sum_hessian":[6.5546E4,4.8911E4,1.6635E4,2.1172E4,2.7739E4,9.704E3,6.931E3,1.6313E4,4.859E3,1.9789E4,7.95E3,5.556E3,4.148E3,3.795E3,3.136E3],"tree_param":{"num_deleted":"0","num_feature":"61","num_nodes":"15","size_leaf_vector":"1"}},{"base_weights":[5.3086956E-6,-1.9283447E-1,3.5362968E-1,-3.7392825E-1,-8.4288366E-2,1.8610272E-1,5.775442E-1,-5.6974315E-3,-3.3557666E-3,-1.0532321E-3,4.3432033E-3,2.7876943E-3,3.247678E-4,4.8245024E-3,7.459945E-3],"categories":[],"categories_nodes":[],"categories_segments":[],"categories_sizes":[],"default_left":[1,0,0,0,1,1,0,0,0,0,0,0,0,0,0],"id":33,"left_children":[1,3,5,7,9,11,13,-1,-1,-1,-1,-1,-1,-1,-1],"loss_changes":[4.469905E3,8.337604E2,8.675762E2,1.19184814E2,2.893703E2,1.883761E2,1.5820801E2,0E0,0E0,0E0,0E0,0E0,0E0,0E0,0E0],"parents":[2147483647,0,0,1,1,2,2,3,3,4,4,5,5,6,6],"right_children":[2,4,6,8,10,12,14,-1,-1,-1,-1,-1,-1,-1,-1],"split_conditions":[-1.2135321E-2,-6.410296E-1,7.6649565E-1,-1.0003977E0,1.3661952E0,-2.589381E-1,1.8446001E0,-5.6974315E-3,-3.3557666E-3,-1.0532321E-3,4.3432033E-3,2.7876943E-3,3.247678E-4,4.8245024E-3,7.459945E-3],"split_indices":[0,0,0,0,2,1,0,0,0,0,0,0,0,0,0],"split_type":[0,0,0,0,0,0,0,0,0,0,0,0,0,0,0],"sum_hessian":[6.5546E4,4.2416E4,2.313E4,1.5895E4,2.6521E4,1.3232E4,9.898E3,2.601E3,1.3294E4,2.5488E4,1.033E3,8.253E3,4.979E3,6.329E3,3.569E3],"tree_param":{"num_deleted":"0","num_feature":"61","num_nodes":"15","size_leaf_vector":"1"}},{"base_weights":[5.2787673E-6,-1.5081804E-1,4.434454E-1,-3.1040767E-1,1.4519675E-3,3.235898E-1,6.7309797E-1,-4.294494E-3,-2.2970343E-3,6.2269816E-4,-1.5945956E-3,4.378527E-3,1.6973983E-3,7.697451E-3,5.6039914E-3],"categories":[],"categories_nodes":[],"categories_segments":[],"categories_sizes":[],"default_left":[1,0,0,0,1,1,1,0,0,0,0,0,0,0,0],"id":34,"left_children":[1,3,5,7,9,11,13,-1,-1,-1,-1,-1,-1,-1,-1],"loss_changes":[4.3839233E3,1.1885969E3,4.5769043E2,2.2933984E2,2.4497064E2,1.921206E2,6.1696533E1,0E0,0E0,0E0,0E0,0E0,0E0,0E0,0E0],"parents":[2147483647,0,0,1,1,2,2,3,3,4,4,5,5,6,6],"right_children":[2,4,6,8,10,12,14,-1,-1,-1,-1,-1,-1,-1,-1],"split_conditions":[2.8733814E-1,-4.613455E-1,1.3354952E0,-7.907663E-1,-3.259472E-2,-2.1366943E-1,2.3901735E-1,-4.294494E-3,-2.2970343E-3,6.2269816E-4,-1.5945956E-3,4.378527E-3,1.6973983E-3,7.697451E-3,5.6039914E-3],"split_indices":[0,0,0,0,1,1,1,0,0,0,0,0,0,0,0],"split_type":[0,0,0,0,0,0,0,0,0,0,0,0,0,0,0],"sum_hessian":[6.5546E4,4.8911E4,1.6635E4,2.3881E4,2.503E4,1.0932E4,5.703E3,9.647E3,1.4234E4,1.8165E4,6.865E3,6.272E3,4.66E3,3.067E3,2.636E3],"tree_param":{"num_deleted":"0","num_feature":"61","num_nodes":"15","size_leaf_vector":"1"}},{"base_weights":[5.4858933E-6,-1.8917777E-1,3.4692457E-1,-3.666802E-1,-8.278427E-2,1.861108E-1,5.713617E-1,-3.2050568E-3,-5.2694064E-3,-1.0359827E-3,4.3037916E-3,2.7683314E-3,3.6663885E-4,4.7709746E-3,7.3189978E-3],"categories":[],"categories_nodes":[],"categories_segments":[],"categories_sizes":[],"default_left":[1,0,0,1,1,1,0,0,0,0,0,0,0,0,0],"id":35,"left_children":[1,3,5,7,9,11,13,-1,-1,-1,-1,-1,-1,-1,-1],"loss_changes":[4.301999E3,8.0101904E2,8.3475146E2,1.1746094E2,2.8332574E2,1.8271329E2,1.4575977E2,0E0,0E0,0E0,0E0,0E0,0E0,0E0,0E0],"parents":[2147483647,0,0,1,1,2,2,3,3,4,4,5,5,6,6],"right_children":[2,4,6,8,10,12,14,-1,-1,-1,-1,-1,-1,-1,-1],"split_conditions":[-1.2135321E-2,-6.410296E-1,7.96443E-1,-3.4947547E-1,1.3661952E0,-2.589381E-1,1.8446001E0,-3.2050568E-3,-5.2694064E-3,-1.0359827E-3,4.3037916E-3,2.7683314E-3,3.6663885E-4,4.7709746E-3,7.3189978E-3],"split_indices":[0,0,0,1,2,1,0,0,0,0,0,0,0,0,0],"split_type":[0,0,0,0,0,0,0,0,0,0,0,0,0,0,0],"sum_hessian":[6.5546E4,4.2416E4,2.313E4,1.5895E4,2.6521E4,1.3476E4,9.654E3,1.2342E4,3.553E3,2.5488E4,1.033E3,8.385E3,5.091E3,6.085E3,3.569E3],"tree_param":{"num_deleted":"0","num_feature":"61","num_nodes":"15","size_leaf_vector":"1"}},{"base_weights":[5.45531E-6,-1.4792924E-1,4.3495265E-1,-3.0451813E-1,1.4776493E-3,3.059335E-1,6.4010614E-1,-2.5226648E-3,-4.8279515E-3,6.1605126E-4,-1.576073E-3,4.166537E-3,1.584557E-3,7.3839435E-3,5.210816E-3],"categories":[],"categories_nodes":[],"categories_segments":[],"categories_sizes":[],"default_left":[1,0,0,1,1,1,1,0,0,0,0,0,0,0,0],"id":36,"left_children":[1,3,5,7,9,11,13,-1,-1,-1,-1,-1,-1,-1,-1],"loss_changes":[4.2176064E3,1.1443191E3,4.4013794E2,2.2234546E2,2.3944064E2,1.6673242E2,7.474414E1,0E0,0E0,0E0,0E0,0E0,0E0,0E0,0E0],"parents":[2147483647,0,0,1,1,2,2,3,3,4,4,5,5,6,6],"right_children":[2,4,6,8,10,12,14,-1,-1,-1,-1,-1,-1,-1,-1],"split_conditions":[2.8733814E-1,-4.613455E-1,1.1857585E0,-3.4947547E-1,-3.259472E-2,-3.4947547E-1,2.3901735E-1,-2.5226648E-3,-4.8279515E-3,6.1605126E-4,-1.576073E-3,4.166537E-3,1.584557E-3,7.3839435E-3,5.210816E-3],"split_indices":[0,0,0,1,1,1,1,0,0,0,0,0,0,0,0],"split_type":[0,0,0,0,0,0,0,0,0,0,0,0,0,0,0],"sum_hessian":[6.5546E4,4.8911E4,1.6635E4,2.3881E4,2.503E4,1.0214E4,6.421E3,1.847E4,5.411E3,1.8165E4,6.865E3,5.833E3,4.381E3,3.514E3,2.907E3],"tree_param":{"num_deleted":"0","num_feature":"61","num_nodes":"15","size_leaf_vector":"1"}},{"base_weights":[5.434039E-6,-1.8559091E-1,3.4034696E-1,-3.5997632E-1,-8.106577E-2,1.7919856E-1,5.5573606E-1,-5.7825577E-3,-3.265806E-3,-1.0165187E-3,4.2647803E-3,2.6847622E-3,3.1191154E-4,4.6396614E-3,7.182984E-3],"categories":[],"categories_nodes":[],"categories_segments":[],"categories_sizes":[],"default_left":[1,0,0,0,1,1,0,0,0,0,0,0,0,0,0],"id":37,"left_children":[1,3,5,7,9,11,13,-1,-1,-1,-1,-1,-1,-1,-1],"loss_changes":[4.140414E3,7.731333E2,8.0276855E2,1.1568677E2,2.7715448E2,1.7484921E2,1.4734326E2,0E0,0E0,0E0,0E0,0E0,0E0,0E0,0E0],"parents":[2147483647,0,0,1,1,2,2,3,3,4,4,5,5,6,6],"right_children":[2,4,6,8,10,12,14,-1,-1,-1,-1,-1,-1,-1,-1],"split_conditions":[-1.2135321E-2,-6.410296E-1,7.6649565E-1,-1.0303451E0,1.3661952E0,-2.589381E-1,1.8446001E0,-5.7825577E-3,-3.265806E-3,-1.0165187E-3,4.2647803E-3,2.6847622E-3,3.1191154E-4,4.6396614E-3,7.182984E-3],"split_indices":[0,0,0,0,2,1,0,0,0,0,0,0,0,0,0],"split_type":[0,0,0,0,0,0,0,0,0,0,0,0,0,0,0],"sum_hessian":[6.5546E4,4.2416E4,2.313E4,1.5895E4,2.6521E4,1.3232E4,9.898E3,2.107E3,1.3788E4,2.5488E4,1.033E3,8.253E3,4.979E3,6.329E3,3.569E3],"tree_param":{"num_deleted":"0","num_feature":"61","num_nodes":"15","size_leaf_vector":"1"}},{"base_weights":[5.475709E-6,-1.7302747E-1,3.5781422E-1,-3.2420713E-1,-4.6889756E-2,2.245194E-1,5.99273E-1,-2.7558722E-3,-4.874721E-3,1.20162935E-4,-2.033574E-3,3.1642644E-3,8.4274454E-4,6.9814413E-3,4.779978E-3],"categories":[],"categories_nodes":[],"categories_segments":[],"categories_sizes":[],"default_left":[1,0,0,1,1,1,1,0,0,0,0,0,0,0,0],"id":38,"left_children":[1,3,5,7,9,11,13,-1,-1,-1,-1,-1,-1,-1,-1],"loss_changes":[4.058254E3,8.4251135E2,6.875344E2,1.5938623E2,2.2200974E2,1.7743597E2,9.078296E1,0E0,0E0,0E0,0E0,0E0,0E0,0E0,0E0],"parents":[2147483647,0,0,1,1,2,2,3,3,4,4,5,5,6,6],"right_children":[2,4,6,8,10,12,14,-1,-1,-1,-1,-1,-1,-1,-1],"split_conditions":[7.770672E-2,-5.511875E-1,1.0360218E0,-3.4947547E-1,-2.1366943E-1,-1.6840076E-1,1.0321132E-1,-2.7558722E-3,-4.874721E-3,1.20162935E-4,-2.033574E-3,3.1642644E-3,8.4274454E-4,6.9814413E-3,4.779978E-3],"split_indices":[0,0,0,1,1,1,1,0,0,0,0,0,0,0,0],"split_type":[0,0,0,0,0,0,0,0,0,0,0,0,0,0,0],"sum_hessian":[6.5546E4,4.4181E4,2.1365E4,2.0095E4,2.4086E4,1.3767E4,7.598E3,1.5486E4,4.609E3,1.7499E4,6.587E3,8.316E3,5.451E3,4.183E3,3.415E3],"tree_param":{"num_deleted":"0","num_feature":"61","num_nodes":"15","size_leaf_vector":"1"}},{"base_weights":[5.5260934E-6,-1.437569E-1,4.226857E-1,-2.959589E-1,1.4643045E-3,3.0850828E-1,6.414584E-1,-4.114765E-3,-2.1764415E-3,6.036096E-4,-1.5436416E-3,4.1844095E-3,1.6048936E-3,7.1980404E-3,5.0916714E-3],"categories":[],"categories_nodes":[],"categories_segments":[],"categories_sizes":[],"default_left":[1,0,0,0,1,1,1,0,0,0,0,0,0,0,0],"id":39,"left_children":[1,3,5,7,9,11,13,-1,-1,-1,-1,-1,-1,-1,-1],"loss_changes":[3.9830588E3,1.0811003E3,4.1535107E2,2.159646E2,2.297382E2,1.7783582E2,5.875244E1,0E0,0E0,0E0,0E0,0E0,0E0,0E0,0E0],"parents":[2147483647,0,0,1,1,2,2,3,3,4,4,5,5,6,6],"right_children":[2,4,6,8,10,12,14,-1,-1,-1,-1,-1,-1,-1,-1],"split_conditions":[2.8733814E-1,-4.613455E-1,1.3354952E0,-7.907663E-1,-3.259472E-2,-2.1366943E-1,3.748234E-1,-4.114765E-3,-2.1764415E-3,6.036096E-4,-1.5436416E-3,4.1844095E-3,1.6048936E-3,7.1980404E-3,5.0916714E-3],"split_indices":[0,0,0,0,1,1,1,0,0,0,0,0,0,0,0],"split_type":[0,0,0,0,0,0,0,0,0,0,0,0,0,0,0],"sum_hessian":[6.5546E4,4.8911E4,1.6635E4,2.3881E4,2.503E4,1.0932E4,5.703E3,9.647E3,1.4234E4,1.8165E4,6.865E3,6.272E3,4.66E3,3.579E3,2.124E3],"tree_param":{"num_deleted":"0","num_feature":"61","num_nodes":"15","size_leaf_vector":"1"}},{"base_weights":[5.615398E-6,-1.803088E-1,3.306613E-1,-3.4979516E-1,-7.872009E-2,1.7394958E-1,5.4012036E-1,-5.649842E-3,-3.1687268E-3,-9.909205E-4,4.2354246E-3,2.6075058E-3,3.0048075E-4,4.5046764E-3,6.989332E-3],"categories":[],"categories_nodes":[],"categories_segments":[],"categories_sizes":[],"default_left":[1,0,0,0,1,1,0,0,0,0,0,0,0,0,0],"id":40,"left_children":[1,3,5,7,9,11,13,-1,-1,-1,-1,-1,-1,-1,-1],"loss_changes":[3.9081016E3,7.303043E2,7.591741E2,1.12437256E2,2.7141693E2,1.6528296E2,1.406272E2,0E0,0E0,0E0,0E0,0E0,0E0,0E0,0E0],"parents":[2147483647,0,0,1,1,2,2,3,3,4,4,5,5,6,6],"right_children":[2,4,6,8,10,12,14,-1,-1,-1,-1,-1,-1,-1,-1],"split_conditions":[-1.2135321E-2,-6.410296E-1,7.6649565E-1,-1.0303451E0,1.3661952E0,-2.589381E-1,1.8446001E0,-5.649842E-3,-3.1687268E-3,-9.909205E-4,4.2354246E-3,2.6075058E-3,3.0048075E-4,4.5046764E-3,6.989332E-3],"split_indices":[0,0,0,0,2,1,0,0,0,0,0,0,0,0,0],"split_type":[0,0,0,0,0,0,0,0,0,0,0,0,0,0,0],"sum_hessian":[6.5546E4,4.2416E4,2.313E4,1.5895E4,2.6521E4,1.3232E4,9.898E3,2.107E3,1.3788E4,2.5488E4,1.033E3,8.253E3,4.979E3,6.329E3,3.569E3],"tree_param":{"num_deleted":"0","num_feature":"61","num_nodes":"15","size_leaf_vector":"1"}},{"base_weights":[5.800424E-6,-1.4099835E-1,4.145763E-1,-2.9034123E-1,1.4948783E-3,3.0267516E-1,6.289873E-1,-2.3911397E-3,-4.6512475E-3,5.972381E-4,-1.525669E-3,4.1173566E-3,1.579007E-3,7.066289E-3,4.978881E-3],"categories":[],"categories_nodes":[],"categories_segments":[],"categories_sizes":[],"default_left":[1,0,0,1,1,1,1,0,0,0,0,0,0,0,0],"id":41,"left_children":[1,3,5,7,9,11,13,-1,-1,-1,-1,-1,-1,-1,-1],"loss_changes":[3.831684E3,1.0408649E3,3.9895435E2,2.137207E2,2.2455856E2,1.7255817E2,5.7707764E1,0E0,0E0,0E0,0E0,0E0,0E0,0E0,0E0],"parents":[2147483647,0,0,1,1,2,2,3,3,4,4,5,5,6,6],"right_children":[2,4,6,8,10,12,14,-1,-1,-1,-1,-1,-1,-1,-1],"split_conditions":[2.8733814E-1,-4.613455E-1,1.3354952E0,-3.4947547E-1,-3.259472E-2,-3.4947547E-1,3.748234E-1,-2.3911397E-3,-4.6512475E-3,5.972381E-4,-1.525669E-3,4.1173566E-3,1.579007E-3,7.066289E-3,4.978881E-3],"split_indices":[0,0,0,1,1,1,1,0,0,0,0,0,0,0,0],"split_type":[0,0,0,0,0,0,0,0,0,0,0,0,0,0,0],"sum_hessian":[6.5546E4,4.8911E4,1.6635E4,2.3881E4,2.503E4,1.0932E4,5.703E3,1.847E4,5.411E3,1.8165E4,6.865E3,6.234E3,4.698E3,3.579E3,2.124E3],"tree_param":{"num_deleted":"0","num_feature":"61","num_nodes":"15","size_leaf_vector":"1"}},{"base_weights":[5.867162E-6,-1.7688987E-1,3.2439247E-1,-3.434016E-1,-7.708414E-2,1.7068103E-1,5.298414E-1,-5.3173755E-3,-3.0651605E-3,-9.723378E-4,4.196966E-3,2.558625E-3,2.9464444E-4,4.418425E-3,6.857247E-3],"categories":[],"categories_nodes":[],"categories_segments":[],"categories_sizes":[],"default_left":[1,0,0,0,1,1,0,0,0,0,0,0,0,0,0],"id":42,"left_children":[1,3,5,7,9,11,13,-1,-1,-1,-1,-1,-1,-1,-1],"loss_changes":[3.761315E3,7.0489417E2,7.303833E2,1.1026453E2,2.6552478E2,1.5917273E2,1.354873E2,0E0,0E0,0E0,0E0,0E0,0E0,0E0,0E0],"parents":[2147483647,0,0,1,1,2,2,3,3,4,4,5,5,6,6],"right_children":[2,4,6,8,10,12,14,-1,-1,-1,-1,-1,-1,-1,-1],"split_conditions":[-1.2135321E-2,-6.410296E-1,7.6649565E-1,-1.0003977E0,1.3661952E0,-2.589381E-1,1.8446001E0,-5.3173755E-3,-3.0651605E-3,-9.723378E-4,4.196966E-3,2.558625E-3,2.9464444E-4,4.418425E-3,6.857247E-3],"split_indices":[0,0,0,0,2,1,0,0,0,0,0,0,0,0,0],"split_type":[0,0,0,0,0,0,0,0,0,0,0,0,0,0,0],"sum_hessian":[6.5546E4,4.2416E4,2.313E4,1.5895E4,2.6521E4,1.3232E4,9.898E3,2.601E3,1.3294E4,2.5488E4,1.033E3,8.253E3,4.979E3,6.329E3,3.569E3],"tree_param":{"num_deleted":"0","num_feature":"61","num_nodes":"15","size_leaf_vector":"1"}},{"base_weights":[6.1136448E-6,-1.7512085E-1,3.2114917E-1,-3.4780937E-1,-8.074615E-2,1.6897437E-1,5.245443E-1,-5.5096657E-3,-3.1453788E-3,-1.0018249E-3,4.155035E-3,2.5330412E-3,2.9169818E-4,4.374248E-3,6.788697E-3],"categories":[],"categories_nodes":[],"categories_segments":[],"categories_sizes":[],"default_left":[1,0,0,0,1,1,0,0,0,0,0,0,0,0,0],"id":43,"left_children":[1,3,5,7,9,11,13,-1,-1,-1,-1,-1,-1,-1,-1],"loss_changes":[3.6864727E3,6.912599E2,7.15853E2,1.0114258E2,2.6460184E2,1.560054E2,1.3279272E2,0E0,0E0,0E0,0E0,0E0,0E0,0E0,0E0],"parents":[2147483647,0,0,1,1,2,2,3,3,4,4,5,5,6,6],"right_children":[2,4,6,8,10,12,14,-1,-1,-1,-1,-1,-1,-1,-1],"split_conditions":[-1.2135321E-2,-6.7097694E-1,7.6649565E-1,-1.0303451E0,1.3661952E0,-2.589381E-1,1.8446001E0,-5.5096657E-3,-3.1453788E-3,-1.0018249E-3,4.155035E-3,2.5330412E-3,2.9169818E-4,4.374248E-3,6.788697E-3],"split_indices":[0,0,0,0,2,1,0,0,0,0,0,0,0,0,0],"split_type":[0,0,0,0,0,0,0,0,0,0,0,0,0,0,0],"sum_hessian":[6.5546E4,4.2416E4,2.313E4,1.4988E4,2.7428E4,1.3232E4,9.898E3,2.107E3,1.2881E4,2.6395E4,1.033E3,8.253E3,4.979E3,6.329E3,3.569E3],"tree_param":{"num_deleted":"0","num_feature":"61","num_nodes":"15","size_leaf_vector":"1"}},{"base_weights":[5.9512727E-6,-1.3170451E-1,4.1910303E-1,-2.8227454E-1,6.642174E-3,3.0935794E-1,6.108718E-1,-2.3158628E-3,-4.552199E-3,6.733897E-4,-1.3595432E-3,4.205944E-3,1.6505329E-3,7.03625E-3,5.0272695E-3],"categories":[],"categories_nodes":[],"categories_segments":[],"categories_sizes":[],"default_left":[1,0,0,1,1,1,1,0,0,0,0,0,0,0,0],"id":44,"left_children":[1,3,5,7,9,11,13,-1,-1,-1,-1,-1,-1,-1,-1],"loss_changes":[3.6182148E3,1.0389203E3,3.296809E2,2.0925122E2,2.2498248E2,1.599845E2,5.6861816E1,0E0,0E0,0E0,0E0,0E0,0E0,0E0,0E0],"parents":[2147483647,0,0,1,1,2,2,3,3,4,4,5,5,6,6],"right_children":[2,4,6,8,10,12,14,-1,-1,-1,-1,-1,-1,-1,-1],"split_conditions":[3.4723282E-1,-4.613455E-1,1.3354952E0,-3.4947547E-1,-1.6840076E-1,-3.4947547E-1,2.3901735E-1,-2.3158628E-3,-4.552199E-3,6.733897E-4,-1.3595432E-3,4.205944E-3,1.6505329E-3,7.03625E-3,5.0272695E-3],"split_indices":[0,0,0,1,1,1,1,0,0,0,0,0,0,0,0],"split_type":[0,0,0,0,0,0,0,0,0,0,0,0,0,0,0],"sum_hessian":[6.5546E4,4.9873E4,1.5673E4,2.3881E4,2.5992E4,9.97E3,5.703E3,1.847E4,5.411E3,1.8232E4,7.76E3,5.629E3,4.341E3,3.067E3,2.636E3],"tree_param":{"num_deleted":"0","num_feature":"61","num_nodes":"15","size_leaf_vector":"1"}},{"base_weights":[6.023846E-6,-1.5326908E-1,3.532791E-1,-2.964615E-1,-2.972715E-2,2.2958891E-1,5.6868786E-1,-2.4815286E-3,-4.5856247E-3,2.7289113E-4,-1.76278E-3,3.204084E-3,9.860315E-4,6.6356366E-3,4.5205033E-3],"categories":[],"categories_nodes":[],"categories_segments":[],"categories_sizes":[],"default_left":[1,0,0,1,1,1,1,0,0,0,0,0,0,0,0],"id":45,"left_children":[1,3,5,7,9,11,13,-1,-1,-1,-1,-1,-1,-1,-1],"loss_changes":[3.549291E3,8.086841E2,5.283257E2,1.6568933E2,2.0507243E2,1.4987067E2,7.975195E1,0E0,0E0,0E0,0E0,0E0,0E0,0E0,0E0],"parents":[2147483647,0,0,1,1,2,2,3,3,4,4,5,5,6,6],"right_children":[2,4,6,8,10,12,14,-1,-1,-1,-1,-1,-1,-1,-1],"split_conditions":[1.376014E-1,-5.212402E-1,1.0959165E0,-3.4947547E-1,-2.1366943E-1,-3.4947547E-1,1.4848E-1,-2.4815286E-3,-4.5856247E-3,2.7289113E-4,-1.76278E-3,3.204084E-3,9.860315E-4,6.6356366E-3,4.5205033E-3],"split_indices":[0,0,0,1,1,1,1,0,0,0,0,0,0,0,0],"split_type":[0,0,0,0,0,0,0,0,0,0,0,0,0,0,0],"sum_hessian":[6.5546E4,4.5713E4,1.9833E4,2.1172E4,2.4541E4,1.26E4,7.233E3,1.6313E4,4.859E3,1.7668E4,6.873E3,7.44E3,5.16E3,3.986E3,3.247E3],"tree_param":{"num_deleted":"0","num_feature":"61","num_nodes":"15","size_leaf_vector":"1"}},{"base_weights":[5.9881413E-6,-1.7020445E-1,3.1213325E-1,-3.3856797E-1,-7.819339E-2,1.6427615E-1,5.0975734E-1,-5.393865E-3,-3.0567988E-3,-9.740887E-4,4.124159E-3,2.4624807E-3,2.8380493E-4,4.2464966E-3,6.605197E-3],"categories":[],"categories_nodes":[],"categories_segments":[],"categories_sizes":[],"default_left":[1,0,0,0,1,1,0,0,0,0,0,0,0,0,0],"id":46,"left_children":[1,3,5,7,9,11,13,-1,-1,-1,-1,-1,-1,-1,-1],"loss_changes":[3.4823894E3,6.570681E2,6.758069E2,9.8830444E1,2.5862143E2,1.4740369E2,1.2673389E2,0E0,0E0,0E0,0E0,0E0,0E0,0E0,0E0],"parents":[2147483647,0,0,1,1,2,2,3,3,4,4,5,5,6,6],"right_children":[2,4,6,8,10,12,14,-1,-1,-1,-1,-1,-1,-1,-1],"split_conditions":[-1.2135321E-2,-6.7097694E-1,7.6649565E-1,-1.0303451E0,1.3661952E0,-2.589381E-1,1.8446001E0,-5.393865E-3,-3.0567988E-3,-9.740887E-4,4.124159E-3,2.4624807E-3,2.8380493E-4,4.2464966E-3,6.605197E-3],"split_indices":[0,0,0,0,2,1,0,0,0,0,0,0,0,0,0],"split_type":[0,0,0,0,0,0,0,0,0,0,0,0,0,0,0],"sum_hessian":[6.5546E4,4.2416E4,2.313E4,1.4988E4,2.7428E4,1.3232E4,9.898E3,2.107E3,1.2881E4,2.6395E4,1.033E3,8.253E3,4.979E3,6.329E3,3.569E3],"tree_param":{"num_deleted":"0","num_feature":"61","num_nodes":"15","size_leaf_vector":"1"}},{"base_weights":[5.820546E-6,-1.2799475E-1,4.0729815E-1,-2.7432302E-1,6.4545386E-3,3.1409633E-1,6.2086624E-1,-2.24637E-3,-4.438493E-3,1.803298E-4,-7.1965433E-3,4.2533777E-3,1.6916514E-3,6.9725323E-3,4.9922294E-3],"categories":[],"categories_nodes":[],"categories_segments":[],"categories_sizes":[],"default_left":[1,0,0,1,0,1,1,0,0,0,0,0,0,0,0],"id":47,"left_children":[1,3,5,7,9,11,13,-1,-1,-1,-1,-1,-1,-1,-1],"loss_changes":[3.4172563E3,9.812095E2,3.1179517E2,2.0106067E2,2.1854153E2,1.7588745E2,4.389099E1,0E0,0E0,0E0,0E0,0E0,0E0,0E0,0E0],"parents":[2147483647,0,0,1,1,2,2,3,3,4,4,5,5,6,6],"right_children":[2,4,6,8,10,12,14,-1,-1,-1,-1,-1,-1,-1,-1],"split_conditions":[3.4723282E-1,-4.613455E-1,1.5151793E0,-3.4947547E-1,1.0926047E1,-3.4947547E-1,3.748234E-1,-2.24637E-3,-4.438493E-3,1.803298E-4,-7.1965433E-3,4.2533777E-3,1.6916514E-3,6.9725323E-3,4.9922294E-3],"split_indices":[0,0,0,1,56,1,1,0,0,0,0,0,0,0,0],"split_type":[0,0,0,0,0,0,0,0,0,0,0,0,0,0,0],"sum_hessian":[6.5546E4,4.9873E4,1.5673E4,2.3881E4,2.5992E4,1.0913E4,4.76E3,1.847E4,5.411E3,2.5585E4,4.07E2,6.173E3,4.74E3,2.921E3,1.839E3],"tree_param":{"num_deleted":"0","num_feature":"61","num_nodes":"15","size_leaf_vector":"1"}},{"base_weights":[5.709446E-6,-1.6698249E-1,3.0622414E-1,-3.324486E-1,-7.655489E-2,1.695037E-1,5.119304E-1,-5.311044E-3,-2.9991493E-3,-9.555017E-4,4.0843175E-3,2.5141155E-3,3.492082E-4,4.354118E-3,6.650003E-3],"categories":[],"categories_nodes":[],"categories_segments":[],"categories_sizes":[],"default_left":[1,0,0,0,1,1,0,0,0,0,0,0,0,0,0],"id":48,"left_children":[1,3,5,7,9,11,13,-1,-1,-1,-1,-1,-1,-1,-1],"loss_changes":[3.351788E3,6.346476E2,6.504553E2,9.67146E1,2.5272763E2,1.5318338E2,1.078772E2,0E0,0E0,0E0,0E0,0E0,0E0,0E0,0E0],"parents":[2147483647,0,0,1,1,2,2,3,3,4,4,5,5,6,6],"right_children":[2,4,6,8,10,12,14,-1,-1,-1,-1,-1,-1,-1,-1],"split_conditions":[-1.2135321E-2,-6.7097694E-1,8.563377E-1,-1.0303451E0,1.3661952E0,-2.589381E-1,2.0242841E0,-5.311044E-3,-2.9991493E-3,-9.555017E-4,4.0843175E-3,2.5141155E-3,3.492082E-4,4.354118E-3,6.650003E-3],"split_indices":[0,0,0,0,2,1,0,0,0,0,0,0,0,0,0],"split_type":[0,0,0,0,0,0,0,0,0,0,0,0,0,0,0],"sum_hessian":[6.5546E4,4.2416E4,2.313E4,1.4988E4,2.7428E4,1.3896E4,9.234E3,2.107E3,1.2881E4,2.6395E4,1.033E3,8.638E3,5.258E3,6.159E3,3.075E3],"tree_param":{"num_deleted":"0","num_feature":"61","num_nodes":"15","size_leaf_vector":"1"}},{"base_weights":[5.853704E-6,-1.3063122E-1,3.8409585E-1,-2.691394E-1,1.5242229E-3,2.7063286E-1,5.6451315E-1,-2.1996184E-3,-4.369313E-3,5.7792716E-4,-1.4735067E-3,3.6029106E-3,1.220027E-3,6.576686E-3,4.517188E-3],"categories":[],"categories_nodes":[],"categories_segments":[],"categories_sizes":[],"default_left":[1,0,0,1,1,1,1,0,0,0,0,0,0,0,0],"id":49,"left_children":[1,3,5,7,9,11,13,-1,-1,-1,-1,-1,-1,-1,-1],"loss_changes":[3.2889624E3,8.953155E2,3.4039746E2,1.9696838E2,2.0969235E2,1.3608026E2,6.718152E1,0E0,0E0,0E0,0E0,0E0,0E0,0E0,0E0],"parents":[2147483647,0,0,1,1,2,2,3,3,4,4,5,5,6,6],"right_children":[2,4,6,8,10,12,14,-1,-1,-1,-1,-1,-1,-1,-1],"split_conditions":[2.8733814E-1,-4.613455E-1,1.1857585E0,-3.4947547E-1,-3.259472E-2,1.0321132E-1,2.3901735E-1,-2.1996184E-3,-4.369313E-3,5.7792716E-4,-1.4735067E-3,3.6029106E-3,1.220027E-3,6.576686E-3,4.517188E-3],"split_indices":[0,0,0,1,1,1,1,0,0,0,0,0,0,0,0],"split_type":[0,0,0,0,0,0,0,0,0,0,0,0,0,0,0],"sum_hessian":[6.5546E4,4.8911E4,1.6635E4,2.3881E4,2.503E4,1.0214E4,6.421E3,1.847E4,5.411E3,1.8165E4,6.865E3,6.37E3,3.844E3,3.514E3,2.907E3],"tree_param":{"num_deleted":"0","num_feature":"61","num_nodes":"15","size_leaf_vector":"1"}},{"base_weights":[5.826322E-6,-1.6381598E-1,3.004178E-1,-3.264417E-1,-7.494067E-2,1.5814114E-1,4.9058318E-1,-5.2295835E-3,-2.9425856E-3,-9.3727454E-4,4.0472182E-3,2.3745021E-3,2.666015E-4,4.085601E-3,6.358816E-3],"categories":[],"categories_nodes":[],"categories_segments":[],"categories_sizes":[],"default_left":[1,0,0,0,1,1,0,0,0,0,0,0,0,0,0],"id":50,"left_children":[1,3,5,7,9,11,13,-1,-1,-1,-1,-1,-1,-1,-1],"loss_changes":[3.2258813E3,6.130458E2,6.257571E2,9.464441E1,2.472094E2,1.3798257E2,1.1771484E2,0E0,0E0,0E0,0E0,0E0,0E0,0E0,0E0],"parents":[2147483647,0,0,1,1,2,2,3,3,4,4,5,5,6,6],"right_children":[2,4,6,8,10,12,14,-1,-1,-1,-1,-1,-1,-1,-1],"split_conditions":[-1.2135321E-2,-6.7097694E-1,7.6649565E-1,-1.0303451E0,1.3661952E0,-2.589381E-1,1.8446001E0,-5.2295835E-3,-2.9425856E-3,-9.3727454E-4,4.0472182E-3,2.3745021E-3,2.666015E-4,4.085601E-3,6.358816E-3],"split_indices":[0,0,0,0,2,1,0,0,0,0,0,0,0,0,0],"split_type":[0,0,0,0,0,0,0,0,0,0,0,0,0,0,0],"sum_hessian":[6.5546E4,4.2416E4,2.313E4,1.4988E4,2.7428E4,1.3232E4,9.898E3,2.107E3,1.2881E4,2.6395E4,1.033E3,8.253E3,4.979E3,6.329E3,3.569E3],"tree_param":{"num_deleted":"0","num_feature":"61","num_nodes":"15","size_leaf_vector":"1"}},{"base_weights":[6.0033744E-6,-1.2318671E-1,3.9199996E-1,-2.6405174E-1,6.242813E-3,3.0233946E-1,5.974532E-1,-2.153776E-3,-4.301264E-3,1.7704016E-4,-7.125135E-3,4.106237E-3,1.612618E-3,6.7251762E-3,4.779227E-3],"categories":[],"categories_nodes":[],"categories_segments":[],"categories_sizes":[],"default_left":[1,0,0,1,0,1,1,0,0,0,0,0,0,0,0],"id":51,"left_children":[1,3,5,7,9,11,13,-1,-1,-1,-1,-1,-1,-1,-1],"loss_changes":[3.1653652E3,9.093091E2,2.8855054E2,1.929585E2,2.1413806E2,1.6666138E2,4.239673E1,0E0,0E0,0E0,0E0,0E0,0E0,0E0,0E0],"parents":[2147483647,0,0,1,1,2,2,3,3,4,4,5,5,6,6],"right_children":[2,4,6,8,10,12,14,-1,-1,-1,-1,-1,-1,-1,-1],"split_conditions":[3.4723282E-1,-4.613455E-1,1.5151793E0,-3.4947547E-1,1.0926047E1,-3.4947547E-1,3.748234E-1,-2.153776E-3,-4.301264E-3,1.7704016E-4,-7.125135E-3,4.106237E-3,1.612618E-3,6.7251762E-3,4.779227E-3],"split_indices":[0,0,0,1,56,1,1,0,0,0,0,0,0,0,0],"split_type":[0,0,0,0,0,0,0,0,0,0,0,0,0,0,0],"sum_hessian":[6.5546E4,4.9873E4,1.5673E4,2.3881E4,2.5992E4,1.0913E4,4.76E3,1.847E4,5.411E3,2.5585E4,4.07E2,6.173E3,4.74E3,2.921E3,1.839E3],"tree_param":{"num_deleted":"0","num_feature":"61","num_nodes":"15","size_leaf_vector":"1"}},{"base_weights":[5.717594E-6,-1.7042369E-1,2.7811506E-1,-3.2054543E-1,-8.2704596E-2,1.2615627E-1,4.5743775E-1,-4.921911E-3,-2.8446678E-3,-1.0333819E-3,4.374562E-3,2.1022067E-3,-1.0033941E-4,3.6160375E-3,5.9148106E-3],"categories":[],"categories_nodes":[],"categories_segments":[],"categories_sizes":[],"default_left":[1,0,0,0,1,1,0,0,0,0,0,0,0,0,0],"id":52,"left_children":[1,3,5,7,9,11,13,-1,-1,-1,-1,-1,-1,-1,-1],"loss_changes":[3.1068447E3,5.3516943E2,6.7862244E2,9.268298E1,2.753842E2,1.543656E2,1.465376E2,0E0,0E0,0E0,0E0,0E0,0E0,0E0,0E0],"parents":[2147483647,0,0,1,1,2,2,3,3,4,4,5,5,6,6],"right_children":[2,4,6,8,10,12,14,-1,-1,-1,-1,-1,-1,-1,-1],"split_conditions":[-7.2030015E-2,-6.7097694E-1,6.1675894E-1,-1.0003977E0,1.3661952E0,-4.8528153E-1,1.5151793E0,-4.921911E-3,-2.8446678E-3,-1.0333819E-3,4.374562E-3,2.1022067E-3,-1.0033941E-4,3.6160375E-3,5.9148106E-3],"split_indices":[0,0,0,0,2,1,0,0,0,0,0,0,0,0,0],"split_type":[0,0,0,0,0,0,0,0,0,0,0,0,0,0,0],"sum_hessian":[6.5546E4,4.0641E4,2.4905E4,1.4988E4,2.5653E4,1.3482E4,1.1423E4,2.601E3,1.2387E4,2.4675E4,9.78E2,8.336E3,5.146E3,6.663E3,4.76E3],"tree_param":{"num_deleted":"0","num_feature":"61","num_nodes":"15","size_leaf_vector":"1"}},{"base_weights":[5.949876E-6,-1.3355206E-1,3.4783253E-1,-2.7494034E-1,-1.9243235E-2,2.2982316E-1,5.2646244E-1,-2.286387E-3,-4.303087E-3,3.7075393E-4,-1.6142036E-3,3.1757504E-3,1.0589212E-3,6.1877314E-3,4.129866E-3],"categories":[],"categories_nodes":[],"categories_segments":[],"categories_sizes":[],"default_left":[1,0,0,1,1,1,1,0,0,0,0,0,0,0,0],"id":53,"left_children":[1,3,5,7,9,11,13,-1,-1,-1,-1,-1,-1,-1,-1],"loss_changes":[3.045034E3,7.654561E2,3.8324E2,1.5221619E2,2.097151E2,1.19082214E2,7.552112E1,0E0,0E0,0E0,0E0,0E0,0E0,0E0,0E0],"parents":[2147483647,0,0,1,1,2,2,3,3,4,4,5,5,6,6],"right_children":[2,4,6,8,10,12,14,-1,-1,-1,-1,-1,-1,-1,-1],"split_conditions":[2.2744344E-1,-5.212402E-1,1.0959165E0,-3.4947547E-1,-1.6840076E-1,-2.1366943E-1,1.4848E-1,-2.286387E-3,-4.303087E-3,3.7075393E-4,-1.6142036E-3,3.1757504E-3,1.0589212E-3,6.1877314E-3,4.129866E-3],"split_indices":[0,0,0,1,1,1,1,0,0,0,0,0,0,0,0],"split_type":[0,0,0,0,0,0,0,0,0,0,0,0,0,0,0],"sum_hessian":[6.5546E4,4.7361E4,1.8185E4,2.1172E4,2.6189E4,1.0952E4,7.233E3,1.6313E4,4.859E3,1.8759E4,7.43E3,6.411E3,4.541E3,3.986E3,3.247E3],"tree_param":{"num_deleted":"0","num_feature":"61","num_nodes":"15","size_leaf_vector":"1"}},{"base_weights":[5.9206463E-6,-1.6721432E-1,2.728785E-1,-3.14605E-1,-8.1091054E-2,1.2386263E-1,4.4872832E-1,-5.0714714E-3,-2.8307312E-3,-1.015107E-3,4.336756E-3,2.0638423E-3,-9.828157E-5,3.5459532E-3,5.803926E-3],"categories":[],"categories_nodes":[],"categories_segments":[],"categories_sizes":[],"default_left":[1,0,0,0,1,1,0,0,0,0,0,0,0,0,0],"id":54,"left_children":[1,3,5,7,9,11,13,-1,-1,-1,-1,-1,-1,-1,-1],"loss_changes":[2.9909434E3,5.1587463E2,6.525913E2,9.085779E1,2.6970245E2,1.4875157E2,1.4138281E2,0E0,0E0,0E0,0E0,0E0,0E0,0E0,0E0],"parents":[2147483647,0,0,1,1,2,2,3,3,4,4,5,5,6,6],"right_children":[2,4,6,8,10,12,14,-1,-1,-1,-1,-1,-1,-1,-1],"split_conditions":[-7.2030015E-2,-6.7097694E-1,6.1675894E-1,-1.0303451E0,1.3661952E0,-4.8528153E-1,1.5151793E0,-5.0714714E-3,-2.8307312E-3,-1.015107E-3,4.336756E-3,2.0638423E-3,-9.828157E-5,3.5459532E-3,5.803926E-3],"split_indices":[0,0,0,0,2,1,0,0,0,0,0,0,0,0,0],"split_type":[0,0,0,0,0,0,0,0,0,0,0,0,0,0,0],"sum_hessian":[6.5546E4,4.0641E4,2.4905E4,1.4988E4,2.5653E4,1.3482E4,1.1423E4,2.107E3,1.2881E4,2.4675E4,9.78E2,8.336E3,5.146E3,6.663E3,4.76E3],"tree_param":{"num_deleted":"0","num_feature":"61","num_nodes":"15","size_leaf_vector":"1"}},{"base_weights":[5.7985326E-6,-1.730903E-1,2.5838608E-1,-3.3328366E-1,-9.9215426E-2,1.1561224E-1,4.442419E-1,-5.0207786E-3,-2.9864195E-3,-1.19295E-3,4.4865967E-3,1.993455E-3,-1.990538E-4,3.510501E-3,5.745897E-3],"categories":[],"categories_nodes":[],"categories_segments":[],"categories_sizes":[],"default_left":[1,0,0,0,1,1,0,0,0,0,0,0,0,0,0],"id":55,"left_children":[1,3,5,7,9,11,13,-1,-1,-1,-1,-1,-1,-1,-1],"loss_changes":[2.9316094E3,4.6448547E2,6.977223E2,7.228674E1,2.95598E2,1.6877284E2,1.3856958E2,0E0,0E0,0E0,0E0,0E0,0E0,0E0,0E0],"parents":[2147483647,0,0,1,1,2,2,3,3,4,4,5,5,6,6],"right_children":[2,4,6,8,10,12,14,-1,-1,-1,-1,-1,-1,-1,-1],"split_conditions":[-1.319247E-1,-7.308716E-1,6.1675894E-1,-1.0303451E0,1.3661952E0,-4.8528153E-1,1.5151793E0,-5.0207786E-3,-2.9864195E-3,-1.19295E-3,4.4865967E-3,1.993455E-3,-1.990538E-4,3.510501E-3,5.745897E-3],"split_indices":[0,0,0,0,2,1,0,0,0,0,0,0,0,0,0],"split_type":[0,0,0,0,0,0,0,0,0,0,0,0,0,0,0],"sum_hessian":[6.5546E4,3.9251E4,2.6295E4,1.2387E4,2.6864E4,1.4872E4,1.1423E4,2.107E3,1.028E4,2.5915E4,9.49E2,9.192E3,5.68E3,6.663E3,4.76E3],"tree_param":{"num_deleted":"0","num_feature":"61","num_nodes":"15","size_leaf_vector":"1"}},{"base_weights":[5.871178E-6,-1.1742873E-1,3.7367776E-1,-2.5192466E-1,6.1487528E-3,2.8329474E-1,5.5773383E-1,-2.042281E-3,-4.1466514E-3,1.7487141E-4,-7.0490562E-3,3.8666686E-3,1.4623319E-3,4.986964E-3,7.121655E-3],"categories":[],"categories_nodes":[],"categories_segments":[],"categories_sizes":[],"default_left":[1,0,0,1,0,1,0,0,0,0,0,0,0,0,0],"id":56,"left_children":[1,3,5,7,9,11,13,-1,-1,-1,-1,-1,-1,-1,-1],"loss_changes":[2.876378E3,8.289409E2,2.6058765E2,1.8529114E2,2.0957338E2,1.4890942E2,4.6698853E1,0E0,0E0,0E0,0E0,0E0,0E0,0E0,0E0],"parents":[2147483647,0,0,1,1,2,2,3,3,4,4,5,5,6,6],"right_children":[2,4,6,8,10,12,14,-1,-1,-1,-1,-1,-1,-1,-1],"split_conditions":[3.4723282E-1,-4.613455E-1,1.4552846E0,-3.4947547E-1,1.0926047E1,-2.1366943E-1,2.8328626E0,-2.042281E-3,-4.1466514E-3,1.7487141E-4,-7.0490562E-3,3.8666686E-3,1.4623319E-3,4.986964E-3,7.121655E-3],"split_indices":[0,0,0,1,56,1,0,0,0,0,0,0,0,0,0],"split_type":[0,0,0,0,0,0,0,0,0,0,0,0,0,0,0],"sum_hessian":[6.5546E4,4.9873E4,1.5673E4,2.3881E4,2.5992E4,1.0513E4,5.16E3,1.847E4,5.411E3,2.5585E4,4.07E2,5.992E3,4.521E3,3.736E3,1.424E3],"tree_param":{"num_deleted":"0","num_feature":"61","num_nodes":"15","size_leaf_vector":"1"}},{"base_weights":[5.9459912E-6,-1.6245049E-1,2.651049E-1,-3.0598885E-1,-7.8578226E-2,1.3743569E-1,4.5863903E-1,-4.7246404E-3,-2.7099736E-3,-9.855819E-4,4.2510307E-3,2.1888001E-3,1.1107156E-4,5.511227E-3,3.401006E-3],"categories":[],"categories_nodes":[],"categories_segments":[],"categories_sizes":[],"default_left":[1,0,0,0,1,1,1,0,0,0,0,0,0,0,0],"id":57,"left_children":[1,3,5,7,9,11,13,-1,-1,-1,-1,-1,-1,-1,-1],"loss_changes":[2.822958E3,4.892605E2,6.1532324E2,8.7186035E1,2.5821176E2,1.5441104E2,1.08333984E2,0E0,0E0,0E0,0E0,0E0,0E0,0E0,0E0],"parents":[2147483647,0,0,1,1,2,2,3,3,4,4,5,5,6,6],"right_children":[2,4,6,8,10,12,14,-1,-1,-1,-1,-1,-1,-1,-1],"split_conditions":[-7.2030015E-2,-6.7097694E-1,7.6649565E-1,-1.0003977E0,1.3661952E0,-4.8528153E-1,1.0321132E-1,-4.7246404E-3,-2.7099736E-3,-9.855819E-4,4.2510307E-3,2.1888001E-3,1.1107156E-4,5.511227E-3,3.401006E-3],"split_indices":[0,0,0,0,2,1,1,0,0,0,0,0,0,0,0],"split_type":[0,0,0,0,0,0,0,0,0,0,0,0,0,0,0],"sum_hessian":[6.5546E4,4.0641E4,2.4905E4,1.4988E4,2.5653E4,1.5007E4,9.898E3,2.601E3,1.2387E4,2.4675E4,9.78E2,9.124E3,5.883E3,5.558E3,4.34E3],"tree_param":{"num_deleted":"0","num_feature":"61","num_nodes":"15","size_leaf_vector":"1"}},{"base_weights":[5.952233E-6,-1.4290501E-1,2.955265E-1,-2.7656585E-1,-4.402214E-2,1.6656162E-1,4.649154E-1,-4.050576E-3,-2.27006E-3,1.1685029E-4,-1.9290657E-3,2.4726181E-3,4.7607967E-4,5.573957E-3,3.491058E-3],"categories":[],"categories_nodes":[],"categories_segments":[],"categories_sizes":[],"default_left":[1,0,0,0,1,1,1,0,0,0,0,0,0,0,0],"id":58,"left_children":[1,3,5,7,9,11,13,-1,-1,-1,-1,-1,-1,-1,-1],"loss_changes":[2.7682969E3,5.839311E2,4.6666748E2,1.1954419E2,2.1063493E2,1.1645038E2,9.8713135E1,0E0,0E0,0E0,0E0,0E0,0E0,0E0,0E0],"parents":[2147483647,0,0,1,1,2,2,3,3,4,4,5,5,6,6],"right_children":[2,4,6,8,10,12,14,-1,-1,-1,-1,-1,-1,-1,-1],"split_conditions":[7.770672E-2,-5.8113486E-1,8.563377E-1,-9.1055566E-1,-2.1366943E-1,-4.8528153E-1,1.0321132E-1,-4.050576E-3,-2.27006E-3,1.1685029E-4,-1.9290657E-3,2.4726181E-3,4.7607967E-4,5.573957E-3,3.491058E-3],"split_indices":[0,0,0,0,1,1,1,0,0,0,0,0,0,0,0],"split_type":[0,0,0,0,0,0,0,0,0,0,0,0,0,0,0],"sum_hessian":[6.5546E4,4.4181E4,2.1365E4,1.8786E4,2.5395E4,1.2131E4,9.234E3,5.227E3,1.3559E4,1.8481E4,6.914E3,7.227E3,4.904E3,5.132E3,4.102E3],"tree_param":{"num_deleted":"0","num_feature":"61","num_nodes":"15","size_leaf_vector":"1"}},{"base_weights":[5.700236E-6,-1.6665845E-1,2.4878503E-1,-3.2130402E-1,-9.534202E-2,1.1144212E-1,4.2757112E-1,-5.1043374E-3,-2.9184876E-3,-1.1499523E-3,4.4089793E-3,1.9266371E-3,-2.0010358E-4,3.411654E-3,5.603475E-3],"categories":[],"categories_nodes":[],"categories_segments":[],"categories_sizes":[],"default_left":[1,0,0,0,1,1,0,0,0,0,0,0,0,0,0],"id":59,"left_children":[1,3,5,7,9,11,13,-1,-1,-1,-1,-1,-1,-1,-1],"loss_changes":[2.71779E3,4.3287073E2,6.4565076E2,6.886279E1,2.8317657E2,1.5879958E2,1.3087231E2,0E0,0E0,0E0,0E0,0E0,0E0,0E0,0E0],"parents":[2147483647,0,0,1,1,2,2,3,3,4,4,5,5,6,6],"right_children":[2,4,6,8,10,12,14,-1,-1,-1,-1,-1,-1,-1,-1],"split_conditions":[-1.319247E-1,-7.308716E-1,6.1675894E-1,-1.0602924E0,1.3661952E0,-4.8528153E-1,1.6050214E0,-5.1043374E-3,-2.9184876E-3,-1.1499523E-3,4.4089793E-3,1.9266371E-3,-2.0010358E-4,3.411654E-3,5.603475E-3],"split_indices":[0,0,0,0,2,1,0,0,0,0,0,0,0,0,0],"split_type":[0,0,0,0,0,0,0,0,0,0,0,0,0,0,0],"sum_hessian":[6.5546E4,3.9251E4,2.6295E4,1.2387E4,2.6864E4,1.4872E4,1.1423E4,1.667E3,1.072E4,2.5915E4,9.49E2,9.192E3,5.68E3,6.922E3,4.501E3],"tree_param":{"num_deleted":"0","num_feature":"61","num_nodes":"15","size_leaf_vector":"1"}},{"base_weights":[5.8215205E-6,-1.1306358E-1,3.5978785E-1,-2.4265589E-1,6.008349E-3,2.7733475E-1,5.487257E-1,-1.9555767E-3,-4.033559E-3,1.722538E-4,-6.974352E-3,3.6895792E-3,1.275038E-3,4.879069E-3,6.9076326E-3],"categories":[],"categories_nodes":[],"categories_segments":[],"categories_sizes":[],"default_left":[1,0,0,1,0,1,0,0,0,0,0,0,0,0,0],"id":60,"left_children":[1,3,5,7,9,11,13,-1,-1,-1,-1,-1,-1,-1,-1],"loss_changes":[2.6665146E3,7.695974E2,2.4402539E2,1.8067651E2,2.0511102E2,1.4978027E2,4.079126E1,0E0,0E0,0E0,0E0,0E0,0E0,0E0,0E0],"parents":[2147483647,0,0,1,1,2,2,3,3,4,4,5,5,6,6],"right_children":[2,4,6,8,10,12,14,-1,-1,-1,-1,-1,-1,-1,-1],"split_conditions":[3.4723282E-1,-4.613455E-1,1.5151793E0,-3.4947547E-1,1.0926047E1,1.0321132E-1,2.8328626E0,-1.9555767E-3,-4.033559E-3,1.722538E-4,-6.974352E-3,3.6895792E-3,1.275038E-3,4.879069E-3,6.9076326E-3],"split_indices":[0,0,0,1,56,1,0,0,0,0,0,0,0,0,0],"split_type":[0,0,0,0,0,0,0,0,0,0,0,0,0,0,0],"sum_hessian":[6.5546E4,4.9873E4,1.5673E4,2.3881E4,2.5992E4,1.0913E4,4.76E3,1.847E4,5.411E3,2.5585E4,4.07E2,6.771E3,4.142E3,3.336E3,1.424E3],"tree_param":{"num_deleted":"0","num_feature":"61","num_nodes":"15","size_leaf_vector":"1"}},{"base_weights":[5.744918E-6,-1.6353273E-1,2.4411939E-1,-3.156897E-1,-9.336397E-2,1.0945946E-1,4.194129E-1,-5.0271917E-3,-2.8656174E-3,-1.1278697E-3,4.36594E-3,1.8966722E-3,-2.0352105E-4,3.4866296E-3,5.749651E-3],"categories":[],"categories_nodes":[],"categories_segments":[],"categories_sizes":[],"default_left":[1,0,0,0,1,1,0,0,0,0,0,0,0,0,0],"id":61,"left_children":[1,3,5,7,9,11,13,-1,-1,-1,-1,-1,-1,-1,-1],"loss_changes":[2.616806E3,4.1905103E2,6.206714E2,6.734314E1,2.765808E2,1.5486002E2,1.25524414E2,0E0,0E0,0E0,0E0,0E0,0E0,0E0,0E0],"parents":[2147483647,0,0,1,1,2,2,3,3,4,4,5,5,6,6],"right_children":[2,4,6,8,10,12,14,-1,-1,-1,-1,-1,-1,-1,-1],"split_conditions":[-1.319247E-1,-7.308716E-1,6.1675894E-1,-1.0602924E0,1.3661952E0,-4.8528153E-1,1.8446001E0,-5.0271917E-3,-2.8656174E-3,-1.1278697E-3,4.36594E-3,1.8966722E-3,-2.0352105E-4,3.4866296E-3,5.749651E-3],"split_indices":[0,0,0,0,2,1,0,0,0,0,0,0,0,0,0],"split_type":[0,0,0,0,0,0,0,0,0,0,0,0,0,0,0],"sum_hessian":[6.5546E4,3.9251E4,2.6295E4,1.2387E4,2.6864E4,1.4872E4,1.1423E4,1.667E3,1.072E4,2.5915E4,9.49E2,9.192E3,5.68E3,7.854E3,3.569E3],"tree_param":{"num_deleted":"0","num_feature":"61","num_nodes":"15","size_leaf_vector":"1"}},{"base_weights":[5.86869E-6,-1.1088659E-1,3.5286096E-1,-2.3805074E-1,5.954297E-3,2.671205E-1,5.274632E-1,-1.9142656E-3,-3.971338E-3,1.7057719E-4,-6.903645E-3,3.6637865E-3,1.3551476E-3,6.0070846E-3,4.0792855E-3],"categories":[],"categories_nodes":[],"categories_segments":[],"categories_sizes":[],"default_left":[1,0,0,1,0,1,1,0,0,0,0,0,0,0,0],"id":62,"left_children":[1,3,5,7,9,11,13,-1,-1,-1,-1,-1,-1,-1,-1],"loss_changes":[2.5648257E3,7.4102783E2,2.3450635E2,1.7705957E2,2.0097723E2,1.3729419E2,4.4941284E1,0E0,0E0,0E0,0E0,0E0,0E0,0E0,0E0],"parents":[2147483647,0,0,1,1,2,2,3,3,4,4,5,5,6,6],"right_children":[2,4,6,8,10,12,14,-1,-1,-1,-1,-1,-1,-1,-1],"split_conditions":[3.4723282E-1,-4.613455E-1,1.4552846E0,-3.4947547E-1,1.0926047E1,-2.1366943E-1,3.748234E-1,-1.9142656E-3,-3.971338E-3,1.7057719E-4,-6.903645E-3,3.6637865E-3,1.3551476E-3,6.0070846E-3,4.0792855E-3],"split_indices":[0,0,0,1,56,1,1,0,0,0,0,0,0,0,0],"split_type":[0,0,0,0,0,0,0,0,0,0,0,0,0,0,0],"sum_hessian":[6.5546E4,4.9873E4,1.5673E4,2.3881E4,2.5992E4,1.0513E4,5.16E3,1.847E4,5.411E3,2.5585E4,4.07E2,5.992E3,4.521E3,3.197E3,1.963E3],"tree_param":{"num_deleted":"0","num_feature":"61","num_nodes":"15","size_leaf_vector":"1"}},{"base_weights":[5.69398E-6,-1.6046613E-1,2.3954175E-1,-3.2163835E-1,-9.6217796E-2,1.0752386E-1,4.1139597E-1,-4.951301E-3,-2.9120704E-3,-1.1473112E-3,4.323319E-3,1.8670816E-3,-2.0631179E-4,3.4199106E-3,5.6399093E-3],"categories":[],"categories_nodes":[],"categories_segments":[],"categories_sizes":[],"default_left":[1,0,0,0,1,1,0,0,0,0,0,0,0,0,0],"id":63,"left_children":[1,3,5,7,9,11,13,-1,-1,-1,-1,-1,-1,-1,-1],"loss_changes":[2.519586E3,4.0642523E2,5.965548E2,5.891858E1,2.7468143E2,1.5093309E2,1.20797E2,0E0,0E0,0E0,0E0,0E0,0E0,0E0,0E0],"parents":[2147483647,0,0,1,1,2,2,3,3,4,4,5,5,6,6],"right_children":[2,4,6,8,10,12,14,-1,-1,-1,-1,-1,-1,-1,-1],"split_conditions":[-1.319247E-1,-7.6081896E-1,6.1675894E-1,-1.0602924E0,1.3661952E0,-4.8528153E-1,1.8446001E0,-4.951301E-3,-2.9120704E-3,-1.1473112E-3,4.323319E-3,1.8670816E-3,-2.0631179E-4,3.4199106E-3,5.6399093E-3],"split_indices":[0,0,0,0,2,1,0,0,0,0,0,0,0,0,0],"split_type":[0,0,0,0,0,0,0,0,0,0,0,0,0,0,0],"sum_hessian":[6.5546E4,3.9251E4,2.6295E4,1.1186E4,2.8065E4,1.4872E4,1.1423E4,1.667E3,9.519E3,2.7116E4,9.49E2,9.192E3,5.68E3,7.854E3,3.569E3],"tree_param":{"num_deleted":"0","num_feature":"61","num_nodes":"15","size_leaf_vector":"1"}},{"base_weights":[5.7268035E-6,-1.588615E-1,2.371466E-1,-3.1842223E-1,-9.525553E-2,1.0644848E-1,4.072828E-1,-4.9018157E-3,-2.8829481E-3,-1.135839E-3,4.2801346E-3,1.8484106E-3,-2.0425221E-4,4.974272E-3,2.9037185E-3],"categories":[],"categories_nodes":[],"categories_segments":[],"categories_sizes":[],"default_left":[1,0,0,0,1,1,1,0,0,0,0,0,0,0,0],"id":64,"left_children":[1,3,5,7,9,11,13,-1,-1,-1,-1,-1,-1,-1,-1],"loss_changes":[2.4694495E3,3.983388E2,5.8468713E2,5.774768E1,2.6922025E2,1.4793E2,1.2025159E2,0E0,0E0,0E0,0E0,0E0,0E0,0E0,0E0],"parents":[2147483647,0,0,1,1,2,2,3,3,4,4,5,5,6,6],"right_children":[2,4,6,8,10,12,14,-1,-1,-1,-1,-1,-1,-1,-1],"split_conditions":[-1.319247E-1,-7.6081896E-1,6.1675894E-1,-1.0602924E0,1.3661952E0,-4.8528153E-1,1.0321132E-1,-4.9018157E-3,-2.8829481E-3,-1.135839E-3,4.2801346E-3,1.8484106E-3,-2.0425221E-4,4.974272E-3,2.9037185E-3],"split_indices":[0,0,0,0,2,1,1,0,0,0,0,0,0,0,0],"split_type":[0,0,0,0,0,0,0,0,0,0,0,0,0,0,0],"sum_hessian":[6.5546E4,3.9251E4,2.6295E4,1.1186E4,2.8065E4,1.4872E4,1.1423E4,1.667E3,9.519E3,2.7116E4,9.49E2,9.192E3,5.68E3,6.448E3,4.975E3],"tree_param":{"num_deleted":"0","num_feature":"61","num_nodes":"15","size_leaf_vector":"1"}},{"base_weights":[5.7288694E-6,-1.1209892E-1,3.2960793E-1,-2.4581164E-1,-1.00364955E-2,2.4036717E-1,5.0060016E-1,-2.0146966E-3,-3.946077E-3,4.188621E-4,-1.5302282E-3,3.2383734E-3,1.023664E-3,4.462374E-3,6.6352803E-3],"categories":[],"categories_nodes":[],"categories_segments":[],"categories_sizes":[],"default_left":[1,0,0,1,1,1,0,0,0,0,0,0,0,0,0],"id":65,"left_children":[1,3,5,7,9,11,13,-1,-1,-1,-1,-1,-1,-1,-1],"loss_changes":[2.4219946E3,6.6750183E2,2.5373645E2,1.3961804E2,2.0595474E2,1.259035E2,5.022534E1,0E0,0E0,0E0,0E0,0E0,0E0,0E0,0E0],"parents":[2147483647,0,0,1,1,2,2,3,3,4,4,5,5,6,6],"right_children":[2,4,6,8,10,12,14,-1,-1,-1,-1,-1,-1,-1,-1],"split_conditions":[2.8733814E-1,-5.212402E-1,1.3354952E0,-3.4947547E-1,-1.2313208E-1,1.0321132E-1,2.8328626E0,-2.0146966E-3,-3.946077E-3,4.188621E-4,-1.5302282E-3,3.2383734E-3,1.023664E-3,4.462374E-3,6.6352803E-3],"split_indices":[0,0,0,1,1,1,0,0,0,0,0,0,0,0,0],"split_type":[0,0,0,0,0,0,0,0,0,0,0,0,0,0,0],"sum_hessian":[6.5546E4,4.8911E4,1.6635E4,2.1172E4,2.7739E4,1.0932E4,5.703E3,1.6313E4,4.859E3,2.035E4,7.389E3,6.811E3,4.121E3,4.279E3,1.424E3],"tree_param":{"num_deleted":"0","num_feature":"61","num_nodes":"15","size_leaf_vector":"1"}},{"base_weights":[6.0196116E-6,-1.5592462E-1,2.3276344E-1,-3.1281066E-1,-9.338488E-2,1.0465296E-1,3.9953116E-1,-4.8265625E-3,-2.8301915E-3,-1.1151428E-3,4.2420286E-3,1.8164004E-3,-1.994604E-4,4.8844013E-3,2.8422293E-3],"categories":[],"categories_nodes":[],"categories_segments":[],"categories_sizes":[],"default_left":[1,0,0,0,1,1,1,0,0,0,0,0,0,0,0],"id":66,"left_children":[1,3,5,7,9,11,13,-1,-1,-1,-1,-1,-1,-1,-1],"loss_changes":[2.379E3,3.8509625E2,5.6176416E2,5.6469116E1,2.634062E2,1.4267308E2,1.1697925E2,0E0,0E0,0E0,0E0,0E0,0E0,0E0,0E0],"parents":[2147483647,0,0,1,1,2,2,3,3,4,4,5,5,6,6],"right_children":[2,4,6,8,10,12,14,-1,-1,-1,-1,-1,-1,-1,-1],"split_conditions":[-1.319247E-1,-7.6081896E-1,6.1675894E-1,-1.0602924E0,1.3661952E0,-4.8528153E-1,1.0321132E-1,-4.8265625E-3,-2.8301915E-3,-1.1151428E-3,4.2420286E-3,1.8164004E-3,-1.994604E-4,4.8844013E-3,2.8422293E-3],"split_indices":[0,0,0,0,2,1,1,0,0,0,0,0,0,0,0],"split_type":[0,0,0,0,0,0,0,0,0,0,0,0,0,0,0],"sum_hessian":[6.5546E4,3.9251E4,2.6295E4,1.1186E4,2.8065E4,1.4872E4,1.1423E4,1.667E3,9.519E3,2.7116E4,9.49E2,9.192E3,5.68E3,6.448E3,4.975E3],"tree_param":{"num_deleted":"0","num_feature":"61","num_nodes":"15","size_leaf_vector":"1"}},{"base_weights":[5.884811E-6,-1.3117468E-1,2.7126956E-1,-2.7282047E-1,-5.157158E-2,1.7196584E-1,4.585071E-1,-2.3364418E-3,-4.088026E-3,2.7153916E-5,-1.985452E-3,2.3854785E-3,4.8223816E-4,5.4474026E-3,3.4860303E-3],"categories":[],"categories_nodes":[],"categories_segments":[],"categories_sizes":[],"default_left":[1,0,0,1,1,1,1,0,0,0,0,0,0,0,0],"id":67,"left_children":[1,3,5,7,9,11,13,-1,-1,-1,-1,-1,-1,-1,-1],"loss_changes":[2.3324941E3,4.9815765E2,3.971875E2,8.4586914E1,2.2569554E2,1.1502957E2,6.998047E1,0E0,0E0,0E0,0E0,0E0,0E0,0E0,0E0],"parents":[2147483647,0,0,1,1,2,2,3,3,4,4,5,5,6,6],"right_children":[2,4,6,8,10,12,14,-1,-1,-1,-1,-1,-1,-1,-1],"split_conditions":[7.770672E-2,-6.410296E-1,1.0659691E0,-3.4947547E-1,-2.1366943E-1,1.0321132E-1,2.3901735E-1,-2.3364418E-3,-4.088026E-3,2.7153916E-5,-1.985452E-3,2.3854785E-3,4.8223816E-4,5.4474026E-3,3.4860303E-3],"split_indices":[0,0,0,1,1,1,1,0,0,0,0,0,0,0,0],"split_type":[0,0,0,0,0,0,0,0,0,0,0,0,0,0,0],"sum_hessian":[6.5546E4,4.4181E4,2.1365E4,1.5895E4,2.8286E4,1.3962E4,7.403E3,1.2342E4,3.553E3,2.0657E4,7.629E3,9.077E3,4.885E3,4.146E3,3.257E3],"tree_param":{"num_deleted":"0","num_feature":"61","num_nodes":"15","size_leaf_vector":"1"}},{"base_weights":[6.1047845E-6,-1.5297183E-1,2.2835605E-1,-3.0697194E-1,-9.158254E-2,1.02645844E-1,3.919992E-1,-4.749419E-3,-2.7750966E-3,-1.0953287E-3,4.208921E-3,1.7823802E-3,-1.9695553E-4,3.309581E-3,5.575519E-3],"categories":[],"categories_nodes":[],"categories_segments":[],"categories_sizes":[],"default_left":[1,0,0,0,1,1,0,0,0,0,0,0,0,0,0],"id":68,"left_children":[1,3,5,7,9,11,13,-1,-1,-1,-1,-1,-1,-1,-1],"loss_changes":[2.2897559E3,3.7105853E2,5.409109E2,5.5230225E1,2.5822784E2,1.3754979E2,1.1526099E2,0E0,0E0,0E0,0E0,0E0,0E0,0E0,0E0],"parents":[2147483647,0,0,1,1,2,2,3,3,4,4,5,5,6,6],"right_children":[2,4,6,8,10,12,14,-1,-1,-1,-1,-1,-1,-1,-1],"split_conditions":[-1.319247E-1,-7.6081896E-1,6.1675894E-1,-1.0602924E0,1.3661952E0,-4.8528153E-1,2.0242841E0,-4.749419E-3,-2.7750966E-3,-1.0953287E-3,4.208921E-3,1.7823802E-3,-1.9695553E-4,3.309581E-3,5.575519E-3],"split_indices":[0,0,0,0,2,1,0,0,0,0,0,0,0,0,0],"split_type":[0,0,0,0,0,0,0,0,0,0,0,0,0,0,0],"sum_hessian":[6.5546E4,3.9251E4,2.6295E4,1.1186E4,2.8065E4,1.4872E4,1.1423E4,1.667E3,9.519E3,2.7116E4,9.49E2,9.192E3,5.68E3,8.348E3,3.075E3],"tree_param":{"num_deleted":"0","num_feature":"61","num_nodes":"15","size_leaf_vector":"1"}},{"base_weights":[6.427783E-6,-1.0375191E-1,3.3016104E-1,-2.232545E-1,6.049368E-3,2.5364035E-1,5.0550586E-1,-1.7795665E-3,-3.7781347E-3,1.7027234E-4,-6.82396E-3,3.5043564E-3,1.2753448E-3,5.219864E-3,1.2399213E-4],"categories":[],"categories_nodes":[],"categories_segments":[],"categories_sizes":[],"default_left":[1,0,0,1,0,1,0,0,0,0,0,0,0,0,0],"id":69,"left_children":[1,3,5,7,9,11,13,-1,-1,-1,-1,-1,-1,-1,-1],"loss_changes":[2.2454316E3,6.5442487E2,2.1017773E2,1.6713513E2,1.9645793E2,1.3317651E2,3.868457E1,0E0,0E0,0E0,0E0,0E0,0E0,0E0,0E0],"parents":[2147483647,0,0,1,1,2,2,3,3,4,4,5,5,6,6],"right_children":[2,4,6,8,10,12,14,-1,-1,-1,-1,-1,-1,-1,-1],"split_conditions":[3.4723282E-1,-4.613455E-1,1.5151793E0,-3.4947547E-1,1.0926047E1,-3.4947547E-1,5.018771E0,-1.7795665E-3,-3.7781347E-3,1.7027234E-4,-6.82396E-3,3.5043564E-3,1.2753448E-3,5.219864E-3,1.2399213E-4],"split_indices":[0,0,0,1,56,1,4,0,0,0,0,0,0,0,0],"split_type":[0,0,0,0,0,0,0,0,0,0,0,0,0,0,0],"sum_hessian":[6.5546E4,4.9873E4,1.5673E4,2.3881E4,2.5992E4,1.0913E4,4.76E3,1.847E4,5.411E3,2.5585E4,4.07E2,6.173E3,4.74E3,4.606E3,1.54E2],"tree_param":{"num_deleted":"0","num_feature":"61","num_nodes":"15","size_leaf_vector":"1"}},{"base_weights":[6.19438E-6,-1.5010114E-1,2.2407119E-1,-3.0169585E-1,-8.967073E-2,1.1478879E-1,4.0507823E-1,-4.6778303E-3,-2.7256398E-3,-1.0741021E-3,4.167832E-3,1.9018712E-3,-2.4853562E-5,4.9200878E-3,2.936633E-3],"categories":[],"categories_nodes":[],"categories_segments":[],"categories_sizes":[],"default_left":[1,0,0,0,1,1,1,0,0,0,0,0,0,0,0],"id":70,"left_children":[1,3,5,7,9,11,13,-1,-1,-1,-1,-1,-1,-1,-1],"loss_changes":[2.2046284E3,3.5955774E2,5.201116E2,5.4E1,2.5219621E2,1.4499611E2,9.573108E1,0E0,0E0,0E0,0E0,0E0,0E0,0E0,0E0],"parents":[2147483647,0,0,1,1,2,2,3,3,4,4,5,5,6,6],"right_children":[2,4,6,8,10,12,14,-1,-1,-1,-1,-1,-1,-1,-1],"split_conditions":[-1.319247E-1,-7.6081896E-1,7.6649565E-1,-1.0602924E0,1.3661952E0,-4.8528153E-1,1.0321132E-1,-4.6778303E-3,-2.7256398E-3,-1.0741021E-3,4.167832E-3,1.9018712E-3,-2.4853562E-5,4.9200878E-3,2.936633E-3],"split_indices":[0,0,0,0,2,1,1,0,0,0,0,0,0,0,0],"split_type":[0,0,0,0,0,0,0,0,0,0,0,0,0,0,0],"sum_hessian":[6.5546E4,3.9251E4,2.6295E4,1.1186E4,2.8065E4,1.6397E4,9.898E3,1.667E3,9.519E3,2.7116E4,9.49E2,9.98E3,6.417E3,5.558E3,4.34E3],"tree_param":{"num_deleted":"0","num_feature":"61","num_nodes":"15","size_leaf_vector":"1"}},{"base_weights":[6.158923E-6,-1.125225E-1,2.9306576E-1,-2.382654E-1,-1.9844828E-2,1.9292164E-1,4.4465348E-1,-1.9641635E-3,-3.7880286E-3,3.3541536E-4,-1.5605466E-3,2.620297E-3,7.2586985E-4,5.1478916E-3,3.1624483E-3],"categories":[],"categories_nodes":[],"categories_segments":[],"categories_sizes":[],"default_left":[1,0,0,1,1,1,1,0,0,0,0,0,0,0,0],"id":71,"left_children":[1,3,5,7,9,11,13,-1,-1,-1,-1,-1,-1,-1,-1],"loss_changes":[2.161616E3,5.5193115E2,2.75989E2,1.1811731E2,1.9828398E2,9.106717E1,6.498682E1,0E0,0E0,0E0,0E0,0E0,0E0,0E0,0E0],"parents":[2147483647,0,0,1,1,2,2,3,3,4,4,5,5,6,6],"right_children":[2,4,6,8,10,12,14,-1,-1,-1,-1,-1,-1,-1,-1],"split_conditions":[2.2744344E-1,-5.511875E-1,1.0959165E0,-3.4947547E-1,-1.6840076E-1,1.0321132E-1,3.748234E-1,-1.9641635E-3,-3.7880286E-3,3.3541536E-4,-1.5605466E-3,2.620297E-3,7.2586985E-4,5.1478916E-3,3.1624483E-3],"split_indices":[0,0,0,1,1,1,1,0,0,0,0,0,0,0,0],"split_type":[0,0,0,0,0,0,0,0,0,0,0,0,0,0,0],"sum_hessian":[6.5546E4,4.7361E4,1.8185E4,2.0095E4,2.7266E4,1.0952E4,7.233E3,1.5486E4,4.609E3,1.9589E4,7.677E3,6.956E3,3.996E3,4.676E3,2.557E3],"tree_param":{"num_deleted":"0","num_feature":"61","num_nodes":"15","size_leaf_vector":"1"}},{"base_weights":[6.1043334E-6,-1.4730786E-1,2.1990144E-1,-2.9632515E-1,-8.790489E-2,9.8921135E-2,3.7738746E-1,-4.3900753E-3,-2.631676E-3,-1.054568E-3,4.13193E-3,1.7219069E-3,-1.966116E-4,3.2350065E-3,5.5568144E-3],"categories":[],"categories_nodes":[],"categories_segments":[],"categories_sizes":[],"default_left":[1,0,0,0,1,1,0,0,0,0,0,0,0,0,0],"id":72,"left_children":[1,3,5,7,9,11,13,-1,-1,-1,-1,-1,-1,-1,-1],"loss_changes":[2.1233394E3,3.4743536E2,5.0097266E2,5.281012E1,2.4689029E2,1.2922702E2,1.0957849E2,0E0,0E0,0E0,0E0,0E0,0E0,0E0,0E0],"parents":[2147483647,0,0,1,1,2,2,3,3,4,4,5,5,6,6],"right_children":[2,4,6,8,10,12,14,-1,-1,-1,-1,-1,-1,-1,-1],"split_conditions":[-1.319247E-1,-7.6081896E-1,6.1675894E-1,-1.0303451E0,1.3661952E0,-4.8528153E-1,2.174021E0,-4.3900753E-3,-2.631676E-3,-1.054568E-3,4.13193E-3,1.7219069E-3,-1.966116E-4,3.2350065E-3,5.5568144E-3],"split_indices":[0,0,0,0,2,1,0,0,0,0,0,0,0,0,0],"split_type":[0,0,0,0,0,0,0,0,0,0,0,0,0,0,0],"sum_hessian":[6.5546E4,3.9251E4,2.6295E4,1.1186E4,2.8065E4,1.4872E4,1.1423E4,2.107E3,9.079E3,2.7116E4,9.49E2,9.192E3,5.68E3,8.774E3,2.649E3],"tree_param":{"num_deleted":"0","num_feature":"61","num_nodes":"15","size_leaf_vector":"1"}},{"base_weights":[6.2067325E-6,-1.4583467E-1,2.1770266E-1,-2.8305277E-1,-8.255517E-2,9.79317E-2,3.736144E-1,-4.3461984E-3,-2.5194818E-3,-1.0057325E-3,4.0906505E-3,1.7046855E-3,-1.9464738E-4,4.591303E-3,2.627089E-3],"categories":[],"categories_nodes":[],"categories_segments":[],"categories_sizes":[],"default_left":[1,0,0,0,1,1,1,0,0,0,0,0,0,0,0],"id":73,"left_children":[1,3,5,7,9,11,13,-1,-1,-1,-1,-1,-1,-1,-1],"loss_changes":[2.0810862E3,3.408053E2,4.9100708E2,5.829297E1,2.3801274E2,1.26655365E2,1.0822656E2,0E0,0E0,0E0,0E0,0E0,0E0,0E0,0E0],"parents":[2147483647,0,0,1,1,2,2,3,3,4,4,5,5,6,6],"right_children":[2,4,6,8,10,12,14,-1,-1,-1,-1,-1,-1,-1,-1],"split_conditions":[-1.319247E-1,-7.308716E-1,6.1675894E-1,-1.0303451E0,1.3661952E0,-4.8528153E-1,1.0321132E-1,-4.3461984E-3,-2.5194818E-3,-1.0057325E-3,4.0906505E-3,1.7046855E-3,-1.9464738E-4,4.591303E-3,2.627089E-3],"split_indices":[0,0,0,0,2,1,1,0,0,0,0,0,0,0,0],"split_type":[0,0,0,0,0,0,0,0,0,0,0,0,0,0,0],"sum_hessian":[6.5546E4,3.9251E4,2.6295E4,1.2387E4,2.6864E4,1.4872E4,1.1423E4,2.107E3,1.028E4,2.5915E4,9.49E2,9.192E3,5.68E3,6.448E3,4.975E3],"tree_param":{"num_deleted":"0","num_feature":"61","num_nodes":"15","size_leaf_vector":"1"}},{"base_weights":[6.45758E-6,-9.8948374E-2,3.1487653E-1,-2.1312761E-1,5.9616957E-3,2.4107674E-1,4.8398718E-1,-1.6870964E-3,-3.6468543E-3,1.682092E-4,-6.7504346E-3,3.3689365E-3,1.2240058E-3,4.252899E-3,6.2110214E-3],"categories":[],"categories_nodes":[],"categories_segments":[],"categories_sizes":[],"default_left":[1,0,0,1,0,1,0,0,0,0,0,0,0,0,0],"id":74,"left_children":[1,3,5,7,9,11,13,-1,-1,-1,-1,-1,-1,-1,-1],"loss_changes":[2.042339E3,5.9741956E2,1.9549988E2,1.6070935E2,1.9223448E2,1.2406384E2,3.805371E1,0E0,0E0,0E0,0E0,0E0,0E0,0E0,0E0],"parents":[2147483647,0,0,1,1,2,2,3,3,4,4,5,5,6,6],"right_children":[2,4,6,8,10,12,14,-1,-1,-1,-1,-1,-1,-1,-1],"split_conditions":[3.4723282E-1,-4.613455E-1,1.5151793E0,-3.4947547E-1,1.0926047E1,-4.4001284E-1,2.8328626E0,-1.6870964E-3,-3.6468543E-3,1.682092E-4,-6.7504346E-3,3.3689365E-3,1.2240058E-3,4.252899E-3,6.2110214E-3],"split_indices":[0,0,0,1,56,1,0,0,0,0,0,0,0,0,0],"split_type":[0,0,0,0,0,0,0,0,0,0,0,0,0,0,0],"sum_hessian":[6.5546E4,4.9873E4,1.5673E4,2.3881E4,2.5992E4,1.0913E4,4.76E3,1.847E4,5.411E3,2.5585E4,4.07E2,6.037E3,4.876E3,3.336E3,1.424E3],"tree_param":{"num_deleted":"0","num_feature":"61","num_nodes":"15","size_leaf_vector":"1"}},{"base_weights":[6.581469E-6,-1.46531E-1,2.0864004E-1,-2.8839275E-1,-8.843181E-2,9.319557E-2,3.6647874E-1,-3.0901283E-3,-6.7142723E-4,-1.0626974E-3,4.1004666E-3,1.6484715E-3,-2.4118774E-4,3.0867346E-3,5.262992E-3],"categories":[],"categories_nodes":[],"categories_segments":[],"categories_sizes":[],"default_left":[1,0,0,0,1,1,0,0,0,0,0,0,0,0,0],"id":75,"left_children":[1,3,5,7,9,11,13,-1,-1,-1,-1,-1,-1,-1,-1],"loss_changes":[2.0039756E3,3.1732642E2,4.9275098E2,5.101654E1,2.4295036E2,1.3131029E2,1.05377686E2,0E0,0E0,0E0,0E0,0E0,0E0,0E0,0E0],"parents":[2147483647,0,0,1,1,2,2,3,3,4,4,5,5,6,6],"right_children":[2,4,6,8,10,12,14,-1,-1,-1,-1,-1,-1,-1,-1],"split_conditions":[-1.6187204E-1,-7.6081896E-1,6.1675894E-1,3.5129886E0,1.3661952E0,-4.8528153E-1,2.0542314E0,-3.0901283E-3,-6.7142723E-4,-1.0626974E-3,4.1004666E-3,1.6484715E-3,-2.4118774E-4,3.0867346E-3,5.262992E-3],"split_indices":[0,0,0,29,2,1,0,0,0,0,0,0,0,0,0],"split_type":[0,0,0,0,0,0,0,0,0,0,0,0,0,0,0],"sum_hessian":[6.5546E4,3.8503E4,2.7043E4,1.1186E4,2.7317E4,1.562E4,1.1423E4,1.0232E4,9.54E2,2.6374E4,9.43E2,9.697E3,5.923E3,8.391E3,3.032E3],"tree_param":{"num_deleted":"0","num_feature":"61","num_nodes":"15","size_leaf_vector":"1"}},{"base_weights":[6.3801476E-6,-1.14052676E-1,2.6289314E-1,-2.3434426E-1,-3.0123977E-2,1.701542E-1,4.2439994E-1,-1.946705E-3,-3.688131E-3,2.0070773E-4,-1.7579421E-3,2.4235584E-3,6.602271E-4,4.9333763E-3,2.9818967E-3],"categories":[],"categories_nodes":[],"categories_segments":[],"categories_sizes":[],"default_left":[1,0,0,1,1,1,1,0,0,0,0,0,0,0,0],"id":76,"left_children":[1,3,5,7,9,11,13,-1,-1,-1,-1,-1,-1,-1,-1],"loss_changes":[1.9654315E3,4.615177E2,2.9700085E2,1.0015466E2,1.9689786E2,9.472415E1,6.2793335E1,0E0,0E0,0E0,0E0,0E0,0E0,0E0,0E0],"parents":[2147483647,0,0,1,1,2,2,3,3,4,4,5,5,6,6],"right_children":[2,4,6,8,10,12,14,-1,-1,-1,-1,-1,-1,-1,-1],"split_conditions":[1.376014E-1,-5.8113486E-1,1.0959165E0,-3.4947547E-1,-1.2313208E-1,-3.4947547E-1,3.748234E-1,-1.946705E-3,-3.688131E-3,2.0070773E-4,-1.7579421E-3,2.4235584E-3,6.602271E-4,4.9333763E-3,2.9818967E-3],"split_indices":[0,0,0,1,1,1,1,0,0,0,0,0,0,0,0],"split_type":[0,0,0,0,0,0,0,0,0,0,0,0,0,0,0],"sum_hessian":[6.5546E4,4.5713E4,1.9833E4,1.8786E4,2.6927E4,1.26E4,7.233E3,1.4508E4,4.278E3,2.0027E4,6.9E3,7.44E3,5.16E3,4.676E3,2.557E3],"tree_param":{"num_deleted":"0","num_feature":"61","num_nodes":"15","size_leaf_vector":"1"}},{"base_weights":[6.4447036E-6,-1.4378874E-1,2.047354E-1,-2.8319058E-1,-8.669701E-2,9.150755E-2,3.595435E-1,-4.4417763E-3,-2.5495428E-3,-1.0435061E-3,4.066297E-3,1.6182866E-3,-2.3628463E-4,4.43348E-3,2.5085881E-3],"categories":[],"categories_nodes":[],"categories_segments":[],"categories_sizes":[],"default_left":[1,0,0,0,1,1,1,0,0,0,0,0,0,0,0],"id":77,"left_children":[1,3,5,7,9,11,13,-1,-1,-1,-1,-1,-1,-1,-1],"loss_changes":[1.9296702E3,3.06417E2,4.7401025E2,5.073932E1,2.379547E2,1.2647914E2,1.0394153E2,0E0,0E0,0E0,0E0,0E0,0E0,0E0,0E0],"parents":[2147483647,0,0,1,1,2,2,3,3,4,4,5,5,6,6],"right_children":[2,4,6,8,10,12,14,-1,-1,-1,-1,-1,-1,-1,-1],"split_conditions":[-1.6187204E-1,-7.6081896E-1,6.1675894E-1,-1.0602924E0,1.3661952E0,-4.8528153E-1,1.0321132E-1,-4.4417763E-3,-2.5495428E-3,-1.0435061E-3,4.066297E-3,1.6182866E-3,-2.3628463E-4,4.43348E-3,2.5085881E-3],"split_indices":[0,0,0,0,2,1,1,0,0,0,0,0,0,0,0],"split_type":[0,0,0,0,0,0,0,0,0,0,0,0,0,0,0],"sum_hessian":[6.5546E4,3.8503E4,2.7043E4,1.1186E4,2.7317E4,1.562E4,1.1423E4,1.667E3,9.519E3,2.6374E4,9.43E2,9.697E3,5.923E3,6.448E3,4.975E3],"tree_param":{"num_deleted":"0","num_feature":"61","num_nodes":"15","size_leaf_vector":"1"}},{"base_weights":[6.3496955E-6,-9.5258236E-2,3.031342E-1,-2.0531929E-1,5.867963E-3,2.3161592E-1,4.6701726E-1,-1.6173595E-3,-3.5402998E-3,1.6610818E-4,-6.6783926E-3,3.1267954E-3,9.905624E-4,4.8325257E-3,-1.8551198E-4],"categories":[],"categories_nodes":[],"categories_segments":[],"categories_sizes":[],"default_left":[1,0,0,1,0,1,0,0,0,0,0,0,0,0,0],"id":78,"left_children":[1,3,5,7,9,11,13,-1,-1,-1,-1,-1,-1,-1,-1],"loss_changes":[1.8928524E3,5.5510156E2,1.8360107E2,1.5472925E2,1.8813646E2,1.1724835E2,3.7541626E1,0E0,0E0,0E0,0E0,0E0,0E0,0E0,0E0],"parents":[2147483647,0,0,1,1,2,2,3,3,4,4,5,5,6,6],"right_children":[2,4,6,8,10,12,14,-1,-1,-1,-1,-1,-1,-1,-1],"split_conditions":[3.4723282E-1,-4.613455E-1,1.5151793E0,-3.4947547E-1,1.0926047E1,1.0321132E-1,5.018771E0,-1.6173595E-3,-3.5402998E-3,1.6610818E-4,-6.6783926E-3,3.1267954E-3,9.905624E-4,4.8325257E-3,-1.8551198E-4],"split_indices":[0,0,0,1,56,1,4,0,0,0,0,0,0,0,0],"split_type":[0,0,0,0,0,0,0,0,0,0,0,0,0,0,0],"sum_hessian":[6.5546E4,4.9873E4,1.5673E4,2.3881E4,2.5992E4,1.0913E4,4.76E3,1.847E4,5.411E3,2.5585E4,4.07E2,6.771E3,4.142E3,4.606E3,1.54E2],"tree_param":{"num_deleted":"0","num_feature":"61","num_nodes":"15","size_leaf_vector":"1"}},{"base_weights":[6.2764243E-6,-1.3179758E-1,2.1508588E-1,-2.5046802E-1,-6.2456243E-2,1.1715536E-1,3.8125286E-1,-3.9770207E-3,-2.1952244E-3,-8.000793E-4,3.8000338E-3,1.0801055E-3,9.55403E-3,4.7113276E-3,2.83954E-3],"categories":[],"categories_nodes":[],"categories_segments":[],"categories_sizes":[],"default_left":[1,0,0,0,1,0,1,0,0,0,0,0,0,0,0],"id":79,"left_children":[1,3,5,7,9,11,13,-1,-1,-1,-1,-1,-1,-1,-1],"loss_changes":[1.8581759E3,3.3441785E2,4.052461E2,6.820624E1,1.9925717E2,1.2003223E2,8.0628296E1,0E0,0E0,0E0,0E0,0E0,0E0,0E0,0E0],"parents":[2147483647,0,0,1,1,2,2,3,3,4,4,5,5,6,6],"right_children":[2,4,6,8,10,12,14,-1,-1,-1,-1,-1,-1,-1,-1],"split_conditions":[-7.2030015E-2,-6.7097694E-1,8.563377E-1,-1.0003977E0,1.3661952E0,1.1289207E1,-1.2313208E-1,-3.9770207E-3,-2.1952244E-3,-8.000793E-4,3.8000338E-3,1.0801055E-3,9.55403E-3,4.7113276E-3,2.83954E-3],"split_indices":[0,0,0,0,2,42,1,0,0,0,0,0,0,0,0],"split_type":[0,0,0,0,0,0,0,0,0,0,0,0,0,0,0],"sum_hessian":[6.5546E4,4.0641E4,2.4905E4,1.4988E4,2.5653E4,1.5671E4,9.234E3,2.601E3,1.2387E4,2.4675E4,9.78E2,1.5503E4,1.68E2,4.798E3,4.436E3],"tree_param":{"num_deleted":"0","num_feature":"61","num_nodes":"15","size_leaf_vector":"1"}},{"base_weights":[6.422283E-6,-1.3974331E-1,1.9897565E-1,-2.7572164E-1,-8.405368E-2,8.898229E-2,3.4936145E-1,-2.961369E-3,-5.667965E-4,-1.0133509E-3,3.988715E-3,1.5839521E-3,-2.4666518E-4,3.6825486E-3,-1.2312443E-3],"categories":[],"categories_nodes":[],"categories_segments":[],"categories_sizes":[],"default_left":[1,0,0,0,1,1,0,0,0,0,0,0,0,0,0],"id":80,"left_children":[1,3,5,7,9,11,13,-1,-1,-1,-1,-1,-1,-1,-1],"loss_changes":[1.822621E3,2.915515E2,4.4731555E2,5.0009277E1,2.280263E2,1.2323322E2,1.0202612E2,0E0,0E0,0E0,0E0,0E0,0E0,0E0,0E0],"parents":[2147483647,0,0,1,1,2,2,3,3,4,4,5,5,6,6],"right_children":[2,4,6,8,10,12,14,-1,-1,-1,-1,-1,-1,-1,-1],"split_conditions":[-1.6187204E-1,-7.6081896E-1,6.1675894E-1,3.5129886E0,1.3661952E0,-4.8528153E-1,5.018771E0,-2.961369E-3,-5.667965E-4,-1.0133509E-3,3.988715E-3,1.5839521E-3,-2.4666518E-4,3.6825486E-3,-1.2312443E-3],"split_indices":[0,0,0,29,2,1,4,0,0,0,0,0,0,0,0],"split_type":[0,0,0,0,0,0,0,0,0,0,0,0,0,0,0],"sum_hessian":[6.5546E4,3.8503E4,2.7043E4,1.1186E4,2.7317E4,1.562E4,1.1423E4,1.0232E4,9.54E2,2.6374E4,9.43E2,9.697E3,5.923E3,1.0984E4,4.39E2],"tree_param":{"num_deleted":"0","num_feature":"61","num_nodes":"15","size_leaf_vector":"1"}},{"base_weights":[6.623604E-6,-9.257702E-2,2.9460382E-1,-1.9956881E-1,5.729074E-3,2.2455817E-1,4.551129E-1,-1.5642273E-3,-3.4678818E-3,1.6364551E-4,-6.6124406E-3,3.1623049E-3,1.1101661E-3,3.971889E-3,5.904374E-3],"categories":[],"categories_nodes":[],"categories_segments":[],"categories_sizes":[],"default_left":[1,0,0,1,0,1,0,0,0,0,0,0,0,0,0],"id":81,"left_children":[1,3,5,7,9,11,13,-1,-1,-1,-1,-1,-1,-1,-1],"loss_changes":[1.787814E3,5.2457306E2,1.7612E2,1.516427E2,1.8439418E2,1.13564575E2,3.708484E1,0E0,0E0,0E0,0E0,0E0,0E0,0E0,0E0],"parents":[2147483647,0,0,1,1,2,2,3,3,4,4,5,5,6,6],